tree
version=v4
num_class=1
num_tree_per_iteration=1
label_index=0
max_feature_idx=9
objective=regression
feature_names=Adrenergic_and_dopaminergic_drugs Diuretics HBp Na LDH anti_gout_medication NSAIDs CysC Glucocorticoid UA
feature_infos=[0:1] [0:1] [0:1] [117:159] [40:2188.3000000000002] [0:1] [0:1] [0.14999999999999999:10.02] [0:1] [68:1098.2]
tree_sizes=3134 3900 4238 4226 4211 4247 4211 4235 4202 4213 4246 4230 4255 4230 4248 4229 4233 4258 4268 4261 4274 4265 4290 4284 4270 4275 4291 4168 3650 3216 3653 3539 2690 2479 2579 4283 3202 2465 4274 3235 3129 2894 1939 3435 3129 2155 1525 2371 2162 2473 3774 2608 2590 4306 4308 2170 4305 1847 2905 3228 3248 4097 3692 1630 2503 1522 3362 4305 4311 1743 2918 2367 2599 2820 2605 3139 3145 4342 3892 2282 1961 2934 3356 1957 4328 3483 2505 4335 2165 2821 2937 4334 4343 4335 4323 2594 4017 3460 3351 3799 3350 4331 2076 3786 4232 2077 3054 3385 4229 3278 4336 3041 3814 2182 4240 2609 3393 2507 2186 3270 4341 4360 2615 3501 4350 2950 2939 3385 3042 4332 3281 4031 3062 4349 2715 1754 3690 4359 3814 4251 4269 4348 3373 2835 3828 1976 3942 3066 3938 2736 4367 3180 4137 2623 4368 2832 4375 2955 3833 4270 3611 2624 2399 4362 3070 4390 4162 3733 4391 3493 2300 4248 4053 3288 2414 4256 3262 3068 3278 4399 2624 2736 3402 4288 4377 2850 1866 2203 4379 4395

Tree=0
num_leaves=30
num_cat=0
split_feature=0 7 5 7 4 3 4 4 9 4 7 4 7 9 7 7 4 9 6 3 7 9 7 7 7 7 7 3 3
split_gain=32.7613 25.9119 9.9781 9.64047 7.02574 5.94737 5.37387 5.24886 5.01437 3.0562 2.7223 2.50207 2.11382 2.00555 1.94171 2.84109 1.76754 1.65013 2.27594 1.67577 1.28695 1.22456 1.0419 0.487721 1.1692 0.372888 0.266689 7.10543e-15 8.88178e-16
threshold=1.0000000180025095e-35 2.1315577756237412 1.0000000180025095e-35 1.6004561189802455 168.50000000000003 139.55500000000004 165.85066792524114 291.50000000000006 593.15000000000009 150.50000000000003 1.8418448707110886 143.95000000000002 2.0387034959354295 477.50000000000006 2.6665421462066772 2.213786211447649 151.95000000000002 519.25000000000011 1.0000000180025095e-35 139.06000000000003 2.2017888371150582 638.70000000000016 2.9166683685080828 1.9869508883177891 2.029179917638714 2.0234861034404155 1.7503693570440815 139.78500000000005 141.82500000000002
decision_type=2 2 2 2 2 2 2 2 2 2 2 2 2 2 2 2 2 2 2 2 2 2 2 2 2 2 2 2 2
left_child=1 4 9 6 21 10 11 20 12 14 -6 -2 -7 -8 15 -3 -5 19 22 -11 -4 23 -19 27 -25 26 -18 -1 -26
right_child=3 2 7 16 5 8 13 -9 -10 17 -12 -13 -14 -15 -16 -17 25 18 -20 -21 -22 -23 -24 24 28 -27 -28 -29 -30
leaf_value=0.45000000218786901 0.45000000218786901 0.50814249603953054 0.48385185423568716 0.51940768299855711 0.47971391654489365 0.45000000218786901 0.49929881578309615 0.52954743488029454 0.52085271554689594 0.54144988400998129 0.52764186438532001 0.49691992027030202 0.49691992027030202 0.53294011120461993 0.51917255535127771 0.45000000218786901 0.54189888188531188 0.47800245334470037 0.53020358253040023 0.51679659190693528 0.45000000218786901 0.48065057246108012 0.51184032715758043 0.48385185423568716 0.45000000218786901 0.54453135323504975 0.5313971921086299 0.45000000218786901 0.45000000218786901
leaf_weight=24.81400340795517 22.608314216136932 18.443316102027893 15.838725626468657 54.074582695960999 18.044414818286896 60.105030477046967 32.627774834632874 13.480515420436857 15.134782314300535 64.492944598197937 34.528421998023987 22.854694485664368 11.427347242832182 38.787279367446899 23.253595769405365 15.439824342727659 40.840447545051575 19.147259414196014 33.425577402114868 48.161458432674408 38.599560856819153 17.492992520332336 17.340471506118774 15.838725626468657 15.991246640682222 90.750032126903534 59.283763647079468 112.4901487827301 12.682712852954863
leaf_count=45 41 16 20 37 24 109 33 7 10 21 19 24 12 18 16 28 13 26 17 35 70 23 14 20 29 25 29 204 23
internal_value=0.5 0.48651 0.507517 0.524092 0.467421 0.484656 0.500462 0.473683 0.46856 0.517104 0.511192 0.473587 0.457495 0.51757 0.49692 0.481648 0.535367 0.523421 0.511353 0.53091 0.459849 0.45538 0.494084 0.452949 0.462045 0.539889 0.535681 0.45 0.45
internal_weight=0 646.173 307.623 361.827 338.55 139.24 116.878 67.9188 86.6672 239.704 52.5728 45.463 71.5324 71.4151 57.1367 33.8831 244.949 182.568 69.9133 112.654 54.4383 199.31 36.4877 181.817 44.5127 190.874 100.124 137.304 28.674
internal_count=1008 788 270 220 518 174 116 97 131 173 43 65 121 51 60 44 104 113 57 56 90 344 40 321 72 67 42 249 52
is_linear=0
shrinkage=1


Tree=1
num_leaves=36
num_cat=0
split_feature=0 7 5 7 4 3 4 4 9 7 7 7 9 7 3 9 4 9 4 9 1 3 3 7 7 4 4 9 7 7 7 7 6 9 3
split_gain=26.5367 20.9886 8.08226 7.80878 5.69085 4.81737 4.35284 4.25158 4.06164 2.53606 5.65107 2.91429 2.26397 2.20506 1.7386 1.62449 1.43171 1.38792 1.15281 1.11996 1.03607 0.597085 0.393884 1.06478 0.302039 0.281738 0.0130152 0.00675272 0.00493521 0.00410278 0.00174525 0.00238317 0.000758717 0.000156685 3.55271e-15
threshold=1.0000000180025095e-35 2.1315577756237412 1.0000000180025095e-35 1.6004561189802455 168.50000000000003 139.55500000000004 165.85066792524114 291.50000000000006 593.15000000000009 2.4681182625810147 2.2103799750388684 2.3697944271593152 443.50000000000006 1.8418448707110886 145.99000000000004 477.50000000000006 151.95000000000002 451.50000000000006 129.05000000000004 573.40000000000009 1.0000000180025095e-35 138.99500000000003 140.41500000000005 1.9869508883177891 2.0234861034404155 190.71517535888478 155.56500000000003 621.50000000000011 1.9721636148378088 2.2491065046112095 1.9943835305508741 2.0532848584895484 1.0000000180025095e-35 484.50000000000006 145.58000000000001
decision_type=2 2 2 2 2 2 2 2 2 2 2 2 2 2 2 2 2 2 2 2 2 2 2 2 2 2 2 2 2 2 2 2 2 2 2
left_child=1 4 9 6 20 13 12 18 14 10 -3 26 32 -6 28 -8 -5 -11 -4 -19 22 -21 23 33 25 -18 -12 30 -7 -20 34 -32 -2 -1 -24
right_child=3 2 7 16 5 8 15 -9 -10 17 11 -13 -14 -15 -16 -17 24 19 29 21 -22 -23 27 -25 -26 -27 -28 -29 -30 -31 31 -33 -34 -35 -36
leaf_value=-0.044999997838148911 -0.04734599675441295 0.025466047118615227 -0.013963884591582695 0.017466911484057279 -0.018257475278423748 -0.044999997838148911 -0.00063106661340720709 0.026592690727537473 0.018767439975231209 -0.00064269148550826405 -0.046018078242960253 0.0044564206836595352 -0.0021088461710930951 0.024877674821119286 -0.0044239364687956749 0.029646099498111207 0.025668606303627862 0.036349092354424198 -0.047256788419597857 0.0067107623921215517 -0.018041598787156079 0.02642756843120141 -0.044999997838148911 -0.014067003969422592 0.040078216510594913 0.036479324986286629 -0.050759290744218324 -0.047774557250194596 -0.047345996754412964 -0.044999997838148911 -0.047031109361452952 -0.044999997838148911 -0.046172997296280931 -0.045459756682578976 -0.044999997838148911
leaf_weight=22.608314216136932 11.028445959091187 48.560359716415405 16.390147924423218 54.074582695960999 18.044414818286896 47.973739922046661 32.627774834632874 13.480515420436857 15.134782314300535 20.64900529384613 11.579868257045748 18.994738399982452 23.406116783618927 34.528421998023987 12.530191838741301 38.787279367446899 40.441546261310577 66.147211492061615 11.579868257045744 27.66497415304184 19.147259414196014 34.528421998023987 84.919033885002136 16.390147924423218 90.750032126903534 59.682664930820465 11.579868257045744 11.028445959091185 11.028445959091185 26.468270301818848 11.028445959091188 12.131290555000303 11.028445959091187 11.028445959091185 11.028445959091185
leaf_count=41 20 27 21 37 24 87 33 7 10 20 21 17 25 19 14 18 21 24 21 24 26 19 154 21 25 21 21 20 20 48 20 22 20 20 20
internal_value=0 -0.0121414 0.00676545 0.0216829 -0.0293211 -0.0138094 0.00041558 -0.0236854 -0.0282963 0.0153935 0.00221154 -0.0245768 -0.0237716 0.0100725 -0.0382541 0.0158132 0.0318306 0.0234196 -0.0361358 0.027291 -0.0401578 0.0176571 -0.0425082 -0.0349669 0.0358999 0.0321127 -0.0483887 -0.0454073 -0.0454385 -0.0456868 -0.0451881 -0.0459672 -0.0467595 -0.0451507 -0.045
internal_weight=0 646.173 307.623 361.827 338.55 139.24 116.878 67.9188 86.6672 239.704 90.7148 42.1545 45.463 52.5728 71.5324 71.4151 244.949 148.99 54.4383 128.341 199.31 62.1934 180.163 50.0269 190.874 100.124 23.1597 130.136 59.0022 38.0481 119.107 23.1597 22.0569 33.6368 95.9475
internal_count=1008 788 270 220 518 174 116 97 131 173 86 59 65 43 121 51 104 87 90 67 344 43 318 82 67 42 42 236 107 69 216 42 40 61 174
is_linear=0
shrinkage=0.1


Tree=2
num_leaves=39
num_cat=0
split_feature=0 7 5 7 4 3 4 9 4 1 4 7 7 4 9 3 4 4 9 7 9 7 9 7 6 4 4 3 7 3 9 5 9 3 8 9 7 3
split_gain=21.4947 17.0008 6.54663 6.32511 4.60959 3.90207 3.54154 4.06654 3.44378 3.40931 2.30202 1.7861 1.42659 2.30529 1.29229 1.25686 2.11733 1.15969 1.13022 0.98585 0.959751 0.319415 0.945266 0.247935 0.242337 0.0317485 0.00404457 0.00282863 0.00263914 0.00196546 0.000697439 0.000141527 0.000100595 4.53021e-05 1.29154e-05 2.1475e-05 2.99184e-06 1.30747e-07
threshold=1.0000000180025095e-35 2.1315577756237412 1.0000000180025095e-35 1.6004561189802455 168.50000000000003 139.55500000000004 184.90000000000003 443.50000000000006 291.50000000000006 1.0000000180025095e-35 150.50000000000003 1.8418448707110886 2.6665421462066772 127.25000000000001 559.15000000000009 140.74500000000003 216.05000000000004 151.95000000000002 519.25000000000011 2.2017888371150582 638.70000000000016 1.9869508883177891 434.00000000000006 2.0532848584895484 1.0000000180025095e-35 143.95000000000002 148.05000000000004 141.11000000000004 1.9552519592902535 143.97000000000003 251.50000000000003 1.0000000180025095e-35 417.15000000000003 142.99500000000003 1.0000000180025095e-35 448.50000000000006 2.4888104888219202 141.16127993279295
decision_type=2 2 2 2 2 2 2 2 2 2 2 2 2 2 2 2 2 2 2 2 2 2 2 2 2 2 2 2 2 2 2 2 2 2 2 2 2 2
left_child=1 4 10 6 20 11 7 25 19 14 12 -6 13 -3 28 18 -17 -5 -12 -4 21 30 -23 24 -19 -2 -21 -24 29 -7 -1 32 33 -32 35 -33 -28 -36
right_child=3 2 8 17 5 9 -8 -9 -10 -11 15 -13 -14 -15 -16 16 -18 23 -20 26 -22 22 27 -25 -26 -27 36 -29 -30 -31 31 34 -34 -35 37 -37 -38 -39
leaf_value=-0.041443544042473461 -0.040335779251655782 0.0063394717224845845 -0.011514222189696275 0.015720222551208845 -0.016431730095866504 -0.040499999405490955 0.020049175523362786 0.0065587882543332509 0.023933420858906439 0.014996831437873434 0.031060187688189779 0.022389908547381474 0.015410574472780589 -0.046215476694350499 -0.0044323580419147971 -0.021661785638329385 0.022245656799842493 0.024287556798443039 0.012157160786153131 -0.042706119157083354 -0.013770234027364124 -0.011844547929069672 -0.043306601369035427 0.036339210981440662 0.033848787707132615 -0.047056997278803206 -0.040432295904232585 -0.04125243664589906 -0.042594877158756941 -0.041975493236398292 -0.040499999405490941 -0.040499999405490955 -0.040911207803504171 -0.040769583587485954 -0.040488505789058896 -0.040653631598818296 -0.040499999405490955 -0.040499999405490955
leaf_weight=11.028445959091185 13.785557448863985 18.994738399982452 15.838725626468657 54.074582695960999 18.044414818286896 35.291027069091797 51.317471206188202 37.438054502010345 13.480515420436857 16.789049208164215 86.643695771694183 34.528421998023987 23.253595769405365 14.8884020447731 11.427347242832182 18.044414818286896 28.063875436782837 52.819217085838318 49.815725326538086 11.579868257045744 17.492992520332336 16.390147924423218 11.028445959091188 84.836907863616943 53.218118369579315 14.336979746818541 11.028445959091188 17.094091236591339 11.028445959091185 12.131290555000303 14.336979746818544 18.196935832500458 21.505469620227814 11.028445959091185 15.439824342727659 18.196935832500458 15.991246640682219 27.571114897727966
leaf_count=20 25 17 20 37 24 64 32 33 7 13 35 19 16 27 12 24 16 26 38 21 23 21 20 23 18 26 20 31 20 22 26 33 39 20 28 33 29 50
internal_value=0 -0.0109273 0.0060889 0.0195146 -0.026389 -0.0124285 0.000374021 -0.0150267 -0.0213169 -0.0254667 0.0138542 0.00906528 -0.00366326 -0.0167534 -0.0351885 0.0193365 0.00506254 0.0286476 0.0241595 -0.0325222 -0.036142 -0.0382944 -0.030933 0.0323099 0.0290862 -0.0437623 -0.0411425 -0.042058 -0.0412015 -0.0408775 -0.0406809 -0.0406143 -0.0407521 -0.0406172 -0.040533 -0.0405768 -0.0404724 -0.0404959
internal_weight=0 646.173 307.623 361.827 338.55 139.24 116.878 65.5606 67.9188 86.6672 239.704 52.5728 57.1367 33.8831 69.8781 182.568 46.1083 244.949 136.459 54.4383 199.31 181.817 44.5127 190.874 106.037 28.1225 38.5996 28.1225 58.4508 47.4223 137.304 126.276 46.8709 25.3654 79.4048 36.3939 27.0197 43.0109
internal_count=1008 788 270 220 518 174 116 84 97 131 173 43 60 44 118 113 40 104 73 90 344 321 72 67 44 51 70 51 106 86 249 229 85 46 144 66 49 78
is_linear=0
shrinkage=0.1


Tree=3
num_leaves=39
num_cat=0
split_feature=0 7 5 7 3 3 3 9 4 3 4 3 4 1 7 4 7 9 9 9 7 9 7 9 7 9 4 7 7 9 9 3 4 9 3 9 4 4
split_gain=17.4107 13.7706 5.30277 5.14123 3.9182 5.49384 3.00756 3.00588 2.78992 3.27428 1.99786 1.87639 1.92595 1.45023 1.44674 1.40786 2.53396 1.2254 1.07304 0.929027 1.98643 0.596058 0.496999 0.244994 0.561165 0.0456163 0.0362232 0.0191712 0.00780376 0.00474928 0.00346637 0.00267216 0.000544835 0.000206205 8.20488e-05 6.8222e-05 6.29394e-05 1.78641e-06
threshold=1.0000000180025095e-35 2.1315577756237412 1.0000000180025095e-35 1.5608854936430667 141.30500000000004 141.19127993279292 139.76000000000002 477.50000000000006 168.50000000000003 139.55500000000004 200.50000000000003 141.97000000000003 150.50000000000003 1.0000000180025095e-35 1.8418448707110886 151.95000000000002 2.0843751176746026 267.50000000000006 427.50000000000006 519.25000000000011 2.7523086889875414 626.50000000000011 1.9869508883177891 448.50000000000006 2.0532848584895484 593.15000000000009 155.95000000000002 2.3292757443981666 1.9755001483230639 469.15000000000003 536.90000000000009 145.99000000000004 195.70000000000002 324.50000000000006 142.24500000000003 347.05000000000007 151.95000000000002 155.10000000000002
decision_type=2 2 2 2 2 2 2 2 2 2 2 2 2 2 2 2 2 2 2 2 2 2 2 2 2 2 2 2 2 2 2 2 2 2 2 2 2 2
left_child=1 4 11 7 5 8 -4 10 22 14 18 12 21 -13 -10 16 -5 -6 26 -14 -21 -3 30 -17 -25 28 -2 -8 31 -30 33 32 34 -1 36 -36 -19 -37
right_child=3 2 6 15 17 -7 27 -9 9 -11 -12 13 19 -15 -16 23 -18 25 -20 20 -22 -23 -24 24 -26 -27 -28 -29 29 -31 -32 -33 -34 -35 35 37 -38 -39
leaf_value=-0.036927896240011304 -0.037262808454264572 -0.010465527194791303 0.0023471479907421293 -0.011827960364361029 -0.0085630990633524216 0.038442200769827822 -0.042294004263669811 0.016507823595206098 -0.014788556524732708 -0.038159115311111068 0.011999725000759302 -0.024746336307655908 0.028393385891212548 0.010769971389612757 0.020150918365880333 0.03359049233442718 0.030610492278700375 -0.036553812588179725 -0.0043462747878040787 -0.0093198916918010438 0.028429930825917205 0.013645863864224209 -0.02014229516759089 0.01813265128632743 0.032245392414219046 -0.042887041111277335 -0.044712447457560436 -0.037580823743727509 -0.040175866844598285 -0.037408270692961029 -0.03851456333688634 -0.038120464982074137 -0.03724474967890206 -0.036435159736603738 -0.036697761574600918 -0.036436083553625487 -0.036880456444591592 -0.03638930563072492
leaf_weight=11.028445959091185 15.991246640682222 27.817495167255402 33.179197132587433 25.611805975437164 15.838725626468657 18.290795087814331 15.991246640682219 52.420315802097321 18.044414818286896 21.505469620227814 16.789049208164215 21.352948606014252 92.556820034980774 24.907862663269043 34.528421998023987 80.578050494194031 31.219888210296631 12.682712852954866 11.978769540786741 24.508961379528046 32.32273280620575 16.237626910209656 25.212904691696167 48.008937418460846 68.20037966966629 15.991246640682219 11.028445959091185 18.748358130455017 12.682712852954866 12.131290555000303 11.028445959091185 14.336979746818541 13.234135150909422 36.945293962955475 11.579868257045744 31.431070983409882 11.028445959091185 11.028445959091185
leaf_count=20 29 33 34 29 20 7 29 34 24 39 13 30 37 19 19 24 13 23 13 27 15 12 37 26 19 29 20 34 23 22 20 26 24 67 21 57 20 20
internal_value=0 -0.00983454 0.00548001 0.0175631 -0.0237501 -0.013447 -0.0191852 -0.000686099 -0.0194428 -0.00528766 -0.0168422 0.0124688 0.0167954 -0.00562356 0.00815875 0.0253493 0.0114852 -0.0349831 -0.0292589 0.022214 0.0121501 -0.00157867 -0.0318941 0.0293532 0.0264151 -0.0378468 -0.0403035 -0.0397504 -0.0372274 -0.0388228 -0.0369159 -0.0368516 -0.0366516 -0.0365484 -0.0365507 -0.0364826 -0.0367057 -0.0364239
internal_weight=0 646.173 307.623 361.827 338.55 176.584 67.9188 108.208 158.293 74.0783 55.7875 239.704 193.444 46.2608 52.5728 253.619 56.8317 161.966 38.9985 149.389 56.8317 44.0551 84.2151 196.787 116.209 146.127 27.0197 34.7396 130.136 24.814 59.0022 105.322 90.9847 47.9737 77.7505 54.0394 23.7112 42.4595
internal_count=1008 788 270 220 518 233 97 109 226 82 75 173 124 49 43 111 42 285 62 79 42 45 144 69 45 265 49 63 236 45 107 191 165 87 141 98 43 77
is_linear=0
shrinkage=0.1


Tree=4
num_leaves=39
num_cat=0
split_feature=0 7 5 7 3 3 7 4 4 3 4 7 7 7 3 9 7 9 9 4 9 4 3 3 4 9 7 9 3 7 9 7 3 7 4 7 7 3
split_gain=14.1027 11.1542 4.29525 4.21763 3.17374 4.45001 2.67048 2.59541 2.25984 2.65217 1.7153 4.50921 1.63712 4.46502 2.08666 1.18922 1.17186 0.992577 0.906401 0.826633 0.709646 0.522966 0.431291 1.14521 0.197722 0.0995121 0.0381125 0.0369492 0.0105653 0.00637469 0.00574988 0.00497122 0.00224843 0.00219448 0.000665465 0.000320085 0.000147906 6.5744e-05
threshold=1.0000000180025095e-35 2.1315577756237412 1.0000000180025095e-35 1.4709716227295317 141.30500000000004 141.19127993279292 1.0750000000000004 291.50000000000006 168.50000000000003 139.55500000000004 151.95000000000002 2.0317762093882807 2.4681182625810147 2.2103799750388684 138.99500000000003 451.50000000000006 1.8418448707110886 267.50000000000006 443.50000000000006 129.05000000000004 573.40000000000009 178.50000000000003 140.31000000000003 140.94000000000003 190.71517535888478 472.34217272418471 2.0011002487547898 593.15000000000009 139.76000000000002 1.9721636148378088 458.50000000000006 2.3390511803114005 145.99000000000004 1.8157949741945651 133.50000000000003 1.1850000000000003 1.9002443899855086 142.24500000000003
decision_type=2 2 2 2 2 2 2 2 2 2 2 2 2 2 2 2 2 2 2 2 2 2 2 2 2 2 2 2 2 2 2 2 2 2 2 2 2 2
left_child=1 4 12 6 5 8 -2 19 22 16 11 -5 13 -3 -15 -14 -10 -6 -8 -4 -17 -22 26 -24 -12 -26 34 29 -21 32 -31 -30 35 -25 -1 -19 37 -37
right_child=3 2 7 10 17 -7 18 -9 9 -11 24 -13 15 14 -16 20 -18 27 -20 28 21 -23 23 33 25 -27 -28 -29 31 30 -32 -33 -34 -35 -36 36 -38 -39
leaf_value=-0.033664772381806471 0.012857470645866743 0.021301392687068002 -0.0082193712387135676 -0.026941582780274947 -0.0077067894110346815 0.034597980399559913 -0.038662999967923536 0.022016503099219119 -0.013309702135740512 -0.034343202227901735 0.022530549524935269 0.02899033648564317 -0.0046029011217649579 -0.0010619903130741953 -0.045560117668189411 0.028464392930093726 0.018135824198856506 -0.03344904229507753 -0.0087964850287109934 -0.03743874248073531 0.0033409162836157075 0.021793423753252328 0.0031888873097530796 -0.033024691386620598 0.031687866781965189 0.026106932986386833 -0.039696170106864527 -0.038598336133545505 -0.035500000891763563 -0.036628566608415576 -0.033660515518216264 -0.032675988834637792 -0.03430841745490875 -0.03499570940116617 -0.032809157963006493 -0.033002706833731799 -0.033175072010220436 -0.032762161590524141
leaf_weight=17.645513534545898 49.815725326538086 48.560359716415405 16.390147924423218 23.558637797832489 15.838725626468657 18.290795087814331 17.645513534545898 13.480515420436857 18.044414818286896 21.505469620227814 81.833416104316711 37.133012473583221 20.64900529384613 21.20042759180069 20.954047322273254 66.147211492061615 34.528421998023987 11.579868257045744 23.957539081573486 12.682712852954863 27.66497415304184 34.528421998023987 13.08161413669586 11.579868257045748 62.2872554063797 65.595789194107056 12.131290555000303 15.991246640682219 11.028445959091188 11.028445959091188 15.991246640682219 14.336979746818541 14.336979746818541 11.028445959091185 18.748358130455017 14.8884020447731 14.336979746818541 47.973739922046661
leaf_count=32 38 27 21 34 20 7 32 7 24 39 35 15 20 21 38 24 19 21 26 23 24 19 15 21 17 23 22 29 20 20 29 26 26 20 34 27 26 87
internal_value=0 -0.00885108 0.00493201 0.0158068 -0.0213751 -0.0121023 -0.00276165 -0.0172667 -0.0174985 -0.0047589 0.0220844 0.00727928 0.0112219 0.000630765 -0.023181 0.0176705 0.00734287 -0.0314848 -0.0214641 -0.0269944 0.0212541 0.0135853 -0.0287047 -0.0203602 0.026369 0.0288252 -0.034842 -0.0340621 -0.0350821 -0.0335047 -0.034872 -0.0339038 -0.0331464 -0.0339862 -0.033224 -0.0329588 -0.0328852 -0.0328191
internal_weight=0 646.173 307.623 361.827 338.55 176.584 91.4188 67.9188 158.293 74.0783 270.408 60.6917 239.704 90.7148 42.1545 148.99 52.5728 161.966 41.6031 54.4383 128.341 62.1934 84.2151 35.6899 209.716 127.883 48.5252 146.127 38.0481 130.136 27.0197 25.3654 103.116 22.6083 36.3939 88.779 77.1991 62.8621
internal_count=1008 788 270 220 518 233 96 97 226 82 124 49 173 86 59 87 43 285 58 90 67 43 144 56 75 40 88 265 69 236 49 46 187 41 66 161 140 114
is_linear=0
shrinkage=0.1


Tree=5
num_leaves=39
num_cat=0
split_feature=0 7 5 7 3 3 3 7 4 3 3 4 4 7 1 4 9 9 7 9 9 7 4 9 9 7 7 9 9 4 5 3 9 5 6 3 4 8
split_gain=11.4232 9.03491 3.47915 3.41628 2.57073 3.60451 2.23546 2.16309 1.83047 2.14826 1.45073 1.41605 1.38939 3.65246 1.10364 1.05669 0.803987 0.756005 1.51619 0.734185 0.514551 0.386944 0.160155 0.0806048 0.0299289 0.018491 0.00519385 0.00348026 0.00316289 0.00213325 0.00188025 0.000536071 0.000134169 8.95146e-05 0.000125144 4.29343e-05 1.34821e-05 2.31083e-07
threshold=1.0000000180025095e-35 2.1315577756237412 1.0000000180025095e-35 1.4709716227295317 141.30500000000004 141.19127993279292 139.76000000000002 1.0750000000000004 168.50000000000003 139.55500000000004 141.97000000000003 150.50000000000003 151.95000000000002 2.0317762093882807 1.0000000180025095e-35 189.85000000000002 267.50000000000006 519.25000000000011 2.7523086889875414 443.50000000000006 626.50000000000011 1.9869508883177891 190.71517535888478 472.34217272418471 593.15000000000009 2.3292757443981666 1.9755001483230639 536.90000000000009 469.15000000000003 170.50000000000003 1.0000000180025095e-35 140.31000000000003 340.40000000000003 1.0000000180025095e-35 1.0000000180025095e-35 144.99000000000004 143.95000000000002 1.0000000180025095e-35
decision_type=2 2 2 2 2 2 2 2 2 2 2 2 2 2 2 2 2 2 2 2 2 2 2 2 2 2 2 2 2 2 2 2 2 2 2 2 2 2
left_child=1 4 10 7 5 8 -4 -2 21 15 11 20 13 -5 -12 -10 -6 -13 -19 -9 -3 27 -14 -24 26 -8 29 31 -28 33 -31 32 -1 34 -18 36 37 -35
right_child=3 2 6 12 16 -7 25 19 9 -11 14 17 22 -15 -16 -17 24 18 -20 -21 -22 -23 23 -25 -26 -27 28 -29 -30 30 -32 -33 -34 35 -36 -37 -38 -39
leaf_value=-0.029912497996234261 0.011571725017083187 -0.010108010416753157 0.0030238121269884799 -0.024247427101878768 -0.0069361103758506558 0.031138182848412462 -0.035768099672397934 -0.034796700469370299 0.031433977476844441 -0.030908884617348299 -0.022490583285066056 0.024124674785312002 0.020277495065909434 0.026091303045750421 0.0084923356662070949 -0.0014877686302927206 -0.029524526756512889 -0.0092855725775438519 0.02369480377189527 -0.0079168372224598799 0.012294268399018064 -0.01546488933437315 0.028519079988936876 0.023496239610511564 -0.03473850448635725 -0.031139282664236292 -0.03255994579261786 -0.031867117553139111 -0.030301390981175871 -0.029708575339051208 -0.031302227270566939 -0.030324662325492802 -0.029472930149504018 -0.029487092451886111 -0.02995940967588236 -0.029320878751982235 -0.029630413585893751 -0.029506346375789267
leaf_weight=11.028445959091188 49.815725326538086 27.817495167255402 33.179197132587433 23.558637797832489 15.838725626468657 18.290795087814331 15.991246640682219 17.645513534545898 12.929093122482298 21.505469620227814 21.352948606014252 92.556820034980774 81.833416104316711 37.133012473583221 24.907862663269043 39.643743693828583 15.439824342727661 24.508961379528046 32.32273280620575 23.957539081573486 16.237626910209656 25.212904691696167 62.2872554063797 65.595789194107056 15.991246640682219 18.748358130455017 12.682712852954866 11.028445959091185 12.131290555000303 13.785557448863983 15.99124664068222 18.196935832500458 18.748358130455017 11.028445959091187 11.579868257045746 12.131290555000303 11.028445959091185 14.336979746818542
leaf_count=20 38 33 34 34 20 7 29 32 6 39 30 37 35 15 19 37 28 27 15 26 12 37 17 23 29 34 23 20 22 25 29 33 34 20 21 22 20 26
internal_value=0 -0.00796598 0.00443881 0.0142261 -0.0192376 -0.0108921 -0.01554 -0.00248548 -0.0157487 -0.00428301 0.0100997 0.0139041 0.019876 0.00655135 -0.00580868 0.00660859 -0.0283363 0.0185503 0.00947185 -0.0193177 -0.00185109 -0.0258342 0.0237321 0.0259427 -0.0306559 -0.03327 -0.0301542 -0.0302653 -0.0314558 -0.0298476 -0.0305644 -0.0298971 -0.0296357 -0.029565 -0.0297109 -0.0294838 -0.0295381 -0.029498
internal_weight=0 646.173 307.623 361.827 338.55 176.584 67.9188 91.4188 158.293 74.0783 239.704 193.444 270.408 60.6917 46.2608 52.5728 161.966 149.389 56.8317 41.6031 44.0551 84.2151 209.716 127.883 146.127 34.7396 130.136 59.0022 24.814 105.322 29.7768 47.9737 29.7768 75.5449 27.0197 48.5252 36.3939 25.3654
internal_count=1008 788 270 220 518 233 97 96 226 82 173 124 124 49 49 43 285 79 42 58 45 144 75 40 265 63 236 107 45 191 54 87 54 137 49 88 66 46
is_linear=0
shrinkage=0.1


Tree=6
num_leaves=39
num_cat=0
split_feature=0 7 5 7 3 3 4 7 7 3 7 3 4 4 4 7 7 7 3 7 7 5 9 9 9 7 7 4 3 9 3 3 9 4 7 3 7 4
split_gain=9.25276 7.31828 2.81811 2.76719 2.08229 2.91965 1.95733 1.7521 1.57823 2.09512 2.06877 1.38058 1.32545 3.44921 1.12541 2.9585 1.10867 3.17422 1.68761 0.708109 0.70555 0.684291 0.664856 0.59469 0.542787 0.147805 0.284945 0.134451 0.100079 0.0578793 0.0548499 0.0462614 0.0242686 0.0038565 0.00290939 0.00201471 0.00105444 0.000348578
threshold=1.0000000180025095e-35 2.1315577756237412 1.0000000180025095e-35 1.4709716227295317 141.30500000000004 141.19127993279292 291.50000000000006 1.0750000000000004 1.6514194216053466 135.72000000000003 2.0011002487547898 140.41500000000005 98.950000000000017 126.30000000000001 151.95000000000002 2.0317762093882807 2.4681182625810147 2.2103799750388684 138.99500000000003 2.0496984352448817 2.2017888371150582 1.0000000180025095e-35 451.50000000000006 443.50000000000006 573.40000000000009 2.1481911468351904 1.6755749558028932 188.80000000000004 139.25500000000002 271.00000000000006 137.97000000000003 139.76000000000002 594.65000000000009 158.65000000000003 1.9817128412365532 145.99000000000004 1.2103880572853576 195.70000000000002
decision_type=2 2 2 2 2 2 2 2 2 2 2 2 2 2 2 2 2 2 2 2 2 2 2 2 2 2 2 2 2 2 2 2 2 2 2 2 2 2
left_child=1 4 12 7 5 8 20 -2 30 -10 11 21 -3 -14 15 -5 17 -15 -19 29 -4 -11 -18 -9 -24 26 -16 -28 -12 -6 -1 -22 34 -33 35 37 -32 -31
right_child=3 2 6 14 19 -7 -8 23 9 10 28 -13 13 16 25 -17 22 18 -20 -21 31 -23 24 -25 -26 -27 27 -29 -30 32 36 33 -34 -35 -36 -37 -38 -39
leaf_value=-0.034838387246448853 0.010414551040685414 0.043451617814673105 -0.0046614437607451521 -0.021822683993207262 -0.034681961389712961 0.028024364954618037 0.020128256155616722 -0.031317031402022043 0.021146018263017916 -0.0057569266071459228 -0.044766981560352144 -0.027522135336367212 -0.047080703441483185 0.020295871155024889 0.026273820637761954 0.023482173399293389 -0.0017807468628548277 9.9269090663105225e-05 -0.041937900775050801 -0.0085350335119289463 -0.034370943272919327 0.018864974481151722 0.024483659520760759 -0.0071251513730350062 0.010988786420311663 0.025766780281857651 0.012368096880409079 0.019675878655204381 -0.032371622566565866 -0.026601312496812191 -0.026912344860876514 -0.028539715798732088 -0.031941069479624072 -0.026030858694819161 -0.028465259191635096 -0.027939071886180691 -0.028078183200521814 -0.027157074186586413
leaf_weight=14.336979746818541 49.815725326538086 10.723403930664061 15.838725626468657 23.558637797832489 12.131290555000303 18.290795087814331 13.480515420436857 17.645513534545898 20.496484279632568 26.714650571346283 11.579868257045748 18.748358130455017 11.028445959091185 40.441546261310577 46.753571808338165 37.133012473583221 18.994738399982452 20.097582995891571 18.196935832500458 21.352948606014252 13.785557448863981 19.546160697937012 65.595789194107056 23.957539081573486 54.626004993915558 55.82270884513855 40.441546261310577 66.698633790016174 14.8884020447731 76.647699415683746 18.748358130455021 11.028445959091188 11.028445959091185 13.785557448863981 12.682712852954863 14.8884020447731 13.234135150909422 13.234135150909422
leaf_count=26 38 2 20 34 22 7 7 32 11 31 21 34 20 21 15 15 17 19 33 30 25 18 23 26 38 14 21 25 27 139 34 20 20 25 23 27 24 24
internal_value=0 -0.00716938 0.00399493 0.0128035 -0.0173138 -0.00980287 -0.013986 -0.00223693 -0.0141738 -0.00775171 -0.0142266 -0.00463091 0.00908972 0.00748052 0.0178884 0.00589622 0.0102413 0.000757597 -0.0198761 -0.0255027 -0.0224337 0.00464634 0.015605 -0.0173859 0.0183519 0.0213589 0.01976 0.0169175 -0.0377946 -0.0280793 -0.0296987 -0.0297263 -0.0274559 -0.0271459 -0.0270348 -0.0268616 -0.0273948 -0.0266831
internal_weight=0 646.173 307.623 361.827 338.55 176.584 67.9188 91.4188 158.293 111.974 91.4774 65.0092 239.704 228.981 270.408 60.6917 217.953 78.7361 38.2945 161.966 54.4383 46.2608 139.217 41.6031 120.222 209.716 153.894 107.14 26.4683 140.613 46.3195 38.5996 128.481 24.814 117.453 104.77 31.9825 89.8818
internal_count=1008 788 270 220 518 233 97 96 226 142 131 83 173 171 124 49 151 73 52 285 90 49 78 58 61 75 61 46 48 255 84 70 233 45 213 190 58 163
is_linear=0
shrinkage=0.1


Tree=7
num_leaves=39
num_cat=0
split_feature=0 7 9 5 4 3 4 7 3 1 9 2 3 4 7 1 9 7 9 7 7 9 9 3 6 7 7 7 3 9 3 7 9 9 2 9 4 4
split_gain=7.49474 5.92781 2.41143 2.28267 1.80086 1.69547 1.67253 2.99871 1.41944 1.74081 1.3689 1.27636 1.09154 1.05082 0.896392 0.853292 0.591299 2.50573 0.47719 0.414705 3.2906 0.409712 0.368674 0.255926 0.380194 0.175118 0.732328 0.0268201 0.0122529 0.0116479 0.00759236 0.0108746 0.0054526 0.00371778 0.00187192 0.00110192 0.000112537 0.000110326
threshold=1.0000000180025095e-35 2.1315577756237412 309.50000000000006 1.0000000180025095e-35 168.50000000000003 139.76000000000002 141.40000000000003 2.0317762093882807 139.55500000000004 1.0000000180025095e-35 423.50000000000006 1.0000000180025095e-35 141.97000000000003 150.50000000000003 1.8418448707110886 1.0000000180025095e-35 477.50000000000006 2.6950000000000007 559.15000000000009 1.0922308882592173 1.3815633902769773 638.70000000000016 626.50000000000011 139.69500000000002 1.0000000180025095e-35 1.9869508883177891 2.029179917638714 2.3292757443981666 141.11000000000004 267.50000000000006 141.30500000000004 1.6682217752915702 499.45000000000005 342.85000000000008 1.0000000180025095e-35 454.50000000000006 141.40000000000003 194.75000000000003
decision_type=2 2 2 2 2 2 2 2 2 2 2 2 2 2 2 2 2 2 2 2 2 2 2 2 2 2 2 2 2 2 2 2 2 2 2 2 2 2
left_child=1 4 -2 12 21 -5 7 10 14 18 -4 -8 13 22 -6 -14 -15 -18 32 -13 -21 25 -3 -22 -25 29 -27 -7 -28 -1 31 36 33 -10 -33 37 -31 -35
right_child=2 3 6 5 8 27 11 -9 9 -11 -12 19 15 16 -16 -17 17 -19 -20 20 23 -23 -24 24 -26 26 28 -29 -30 30 -32 34 -34 35 -36 -37 -38 -39
leaf_value=-0.027671964512457722 -0.034519331731834045 -0.009080577919279539 -0.0034717408001624776 0.0035795763727126013 -0.011955795702476402 -0.031036779911769563 0.00034627895104976416 0.023468699083143099 -0.026429410805861343 0.014193585317866514 -0.045360112286865858 0.029738601187785443 -0.020286730783605947 0.023078902288604333 0.015546565806464378 0.0069564771725299695 -0.014586807856543857 0.02164849733233527 -0.0029777133858768451 -0.042608950505338097 0.015016122088874893 -0.0070613998363125534 0.0098820889301030265 0.017482724477681604 0.028058878937104043 -0.00037597854927187463 -0.029399894143159862 -0.025462104731041341 -0.025253271181813114 -0.024113080458368633 -0.023924078233266047 -0.026016885523306579 -0.027208335801037223 -0.024146200311854875 -0.027700289504288624 -0.025125540236936101 -0.023661323300398614 -0.02371467130616382
leaf_weight=13.234135150909422 11.028445959091185 27.817495167255402 16.390147924423221 33.179197132587433 18.044414818286896 15.991246640682219 44.454023361206055 24.203919351100922 11.028445959091185 16.789049208164215 14.8884020447731 30.117043614387512 21.352948606014252 60.785509526729584 34.528421998023987 24.907862663269043 27.817495167255402 60.785509526729584 11.427347242832182 8.8227567672729474 74.817447245121002 17.492992520332336 16.237626910209656 74.817447245121002 62.2872554063797 15.838725626468657 13.234135150909426 18.748358130455017 15.439824342727659 11.028445959091188 75.544854819774628 12.682712852954865 12.131290555000303 12.131290555000307 13.785557448863983 11.579868257045744 11.028445959091185 11.579868257045744
leaf_count=24 20 33 21 34 24 29 37 9 20 13 27 11 30 23 19 19 33 23 12 16 31 23 12 31 17 20 24 34 28 20 137 23 22 22 25 21 20 21
internal_value=0 -0.00645244 0.0115232 0.00359544 -0.0155824 -0.0125874 0.0129707 -0.00295963 -0.00685653 -0.0147203 -0.0234104 0.0159636 0.00818075 0.0114807 0.00610701 -0.00561837 0.0154832 0.0102722 -0.0216672 0.018731 0.0172292 -0.0216785 -0.00209141 0.0197204 0.0222875 -0.0230848 -0.0176341 -0.0280282 -0.0271671 -0.0248518 -0.024551 -0.0255271 -0.0253211 -0.0248268 -0.0268937 -0.024326 -0.0238872 -0.0239355
internal_weight=0 646.173 361.827 307.623 338.55 67.9188 350.798 55.4825 139.24 86.6672 31.2785 295.316 239.704 193.444 52.5728 46.2608 149.389 88.603 69.8781 250.862 220.745 199.31 44.0551 211.922 137.105 181.817 44.5127 34.7396 28.674 137.304 124.07 48.5252 58.4508 46.3195 26.4683 35.291 22.0569 23.7112
internal_count=1008 788 220 270 518 97 200 57 174 131 48 143 173 124 43 49 79 56 118 106 95 344 45 79 48 321 72 63 52 249 225 88 106 84 48 64 40 43
is_linear=0
shrinkage=0.1


Tree=8
num_leaves=39
num_cat=0
split_feature=0 7 9 5 3 3 4 4 7 4 7 4 4 1 4 8 9 9 7 7 7 7 9 7 7 3 7 9 4 9 4 3 4 9 7 7 9 4
split_gain=6.07074 4.80152 1.95326 1.84896 1.49529 2.23356 1.47655 1.4332 1.13073 1.45747 1.16302 1.12831 2.6185 1.08199 3.1932 0.799612 0.760153 0.952055 0.760111 0.829414 0.746842 1.48464 0.580646 0.557631 0.48661 0.451516 0.627554 0.418643 0.411322 0.3738 0.368188 0.0809157 0.0610164 0.0422747 0.0143306 0.0111183 0.00410469 0.00289669
threshold=1.0000000180025095e-35 2.1315577756237412 309.50000000000006 1.0000000180025095e-35 141.30500000000004 141.19127993279292 291.50000000000006 125.25000000000001 1.6514194216053466 168.50000000000003 1.6755749558028932 98.950000000000017 126.30000000000001 1.0000000180025095e-35 148.85000000000002 1.0000000180025095e-35 271.00000000000006 446.95000000000005 1.0550000000000004 1.6929991052328057 2.4681182625810147 2.213786211447649 267.50000000000006 2.2017888371150582 1.3815633902769773 140.31000000000003 1.9869508883177891 434.00000000000006 188.80000000000004 559.15000000000009 231.20000000000002 139.76000000000002 172.80000000000004 593.15000000000009 1.9943835305508741 2.0011002487547898 469.15000000000003 158.65000000000003
decision_type=2 2 2 2 2 2 2 2 2 2 2 2 2 2 2 2 2 2 2 2 2 2 2 2 2 2 2 2 2 2 2 2 2 2 2 2 2 2
left_child=1 4 -2 11 5 8 23 -4 32 25 -11 -3 -13 14 -9 16 -14 -18 -15 -20 21 -19 -6 -5 -16 35 -27 -21 -29 -22 -12 -25 -1 34 -24 -10 -36 -33
right_child=2 3 7 6 22 -7 -8 13 9 10 30 12 15 18 24 -17 17 20 19 27 29 -23 33 31 -26 26 -28 28 -30 -31 -32 37 -34 -35 36 -37 -38 -39
leaf_value=-0.021847493574218856 -0.031067398707277906 0.039066381965482261 -0.010841620196803558 -0.0028660313085565616 -0.0027769981740205871 0.025426141812740579 0.018301063169580686 -0.037857339772895224 -0.024847854228450244 0.047233288755613931 -0.0076982409759869617 -0.041661108277284642 0.0365985924962541 0.035025251331079477 0.0018147012359786203 -0.0065985069971228084 -0.010133416713253246 0.016621371912760179 -0.0038267359995747814 0.023732538022050442 0.022058569040571446 -0.018486198847995527 -0.021850237371305328 -0.031291807200499046 0.017664710148163853 -0.022635377537287053 0.0073850840995678263 0.0060891758158774156 0.018552324116187575 0.010010767670240464 0.0094041246119973432 -0.022944421186529802 -0.029368949198908818 -0.027786865069134005 -0.025990106585744251 -0.028893345675930798 -0.023324499936082908 -0.020770069733749664
leaf_weight=29.225381791591644 11.028445959091185 10.723403930664061 26.163228273391724 15.838725626468657 15.838725626468657 18.290795087814331 13.480515420436857 14.8884020447731 15.439824342727663 5.9131242632865897 26.714650571346283 11.028445959091185 10.723403930664061 21.998230159282684 29.319241046905518 30.973507940769196 22.303272187709808 28.615297734737396 20.097582995891571 68.75180196762085 58.579820334911346 20.801526308059692 106.97592580318451 13.785557448863981 57.07807445526123 14.888402044773104 13.08161413669586 42.647235453128815 69.854646563529968 45.955769240856171 23.805018067359924 11.028445959091188 17.094091236591339 15.991246640682219 11.028445959091188 12.131290555000303 12.131290555000303 13.785557448863981
leaf_count=53 20 2 30 20 20 7 7 27 28 2 31 20 2 5 27 30 23 17 19 20 19 29 194 25 25 27 15 25 22 31 17 20 31 29 20 22 22 25
internal_value=0 -0.0058072 0.0103709 0.00323589 -0.0140242 -0.00765936 -0.0113287 0.0116736 -0.0114824 -0.0060465 0.00527186 0.00736267 0.00587796 0.0134882 0.00491518 0.00828344 0.0107487 0.00917596 0.0173759 0.0154476 0.0119733 0.00184319 -0.0209635 -0.0186659 0.012286 -0.0175466 -0.00859477 0.0175848 0.0138278 0.0167621 0.000360445 -0.0251491 -0.0246233 -0.0229347 -0.0223385 -0.0266279 -0.0245938 -0.0217364
internal_weight=0 646.173 361.827 307.623 338.55 176.584 67.9188 350.798 158.293 111.974 56.4328 239.704 228.981 324.635 101.286 217.953 186.979 176.256 223.349 201.351 153.952 49.4168 161.966 54.4383 86.3973 55.5411 27.97 181.254 112.502 104.536 50.5197 38.5996 46.3195 146.127 130.136 27.5711 23.1597 24.814
internal_count=1008 788 220 270 518 233 97 200 226 142 50 173 171 170 79 151 121 119 91 86 96 46 285 90 52 92 42 67 47 50 48 70 84 265 236 50 42 45
is_linear=0
shrinkage=0.1


Tree=9
num_leaves=39
num_cat=0
split_feature=0 3 4 7 7 3 2 1 5 3 8 6 4 4 7 3 9 4 9 9 9 7 9 7 3 3 4 2 7 4 4 4 7 4 4 7 9 9
split_gain=4.9173 3.94584 2.7262 2.5475 1.67059 1.59196 2.62485 1.53823 1.2621 1.25931 1.15464 2.73917 1.37844 1.14345 1.08022 1.01315 0.837872 0.833359 0.69507 0.916639 0.986729 1.06583 0.673209 1.36781 0.660292 0.527667 0.456911 0.451574 0.413269 0.361871 0.199795 0.115564 0.051732 0.0293656 0.0289736 0.0205257 0.0232055 0.0159593
threshold=1.0000000180025095e-35 140.71000000000001 199.05000000000004 1.8418448707110886 1.5608854936430667 145.99000000000004 1.0000000180025095e-35 1.0000000180025095e-35 1.0000000180025095e-35 142.00500000000002 1.0000000180025095e-35 1.0000000180025095e-35 131.90000000000003 208.35000000000002 2.2103799750388684 138.99500000000003 568.25000000000011 127.25000000000001 271.00000000000006 426.06500000000005 434.00000000000006 2.590058999284091 445.65000000000003 2.0234861034404155 139.39500000000001 137.38500000000002 157.50000000000003 1.0000000180025095e-35 2.1357022987016294 174.05000000000004 172.80000000000004 144.05000000000004 1.87256208119064 155.56500000000003 158.65000000000003 1.9618095270069362 291.50000000000006 448.50000000000006
decision_type=2 2 2 2 2 2 2 2 2 2 2 2 2 2 2 2 2 2 2 2 2 2 2 2 2 2 2 2 2 2 2 2 2 2 2 2 2 2
left_child=1 3 16 24 5 6 31 9 29 -4 11 12 15 18 -12 -5 28 -18 -14 -20 -21 -22 -6 26 30 -15 -24 -19 35 -8 -1 -2 -11 -30 -29 36 -3 -37
right_child=4 2 7 10 22 -7 8 -9 -10 32 14 -13 13 25 -16 -17 17 27 19 20 21 -23 23 -25 -26 -27 -28 34 33 -31 -32 -33 -34 -35 -36 37 -38 -39
leaf_value=-0.020384339569024659 -0.02947366877533621 -0.024607107344878268 0.0084456750969170904 -0.033506021033236029 0.01980370471001178 0.024446814880977576 -0.00081637190726258644 0.017969400538235401 0.020067750840369679 -0.021838502886773803 0.0054205207142051983 0.03364473343252599 0.036658710712552771 0.0030252144857930855 -0.023774476011245105 0.00431831166016517 0.0051313752741756575 -0.0052623475170095859 -0.012774881686913273 0.042178347588254464 -0.0036459572673945306 0.018592145897175595 -0.018256559451266051 0.016474327888655219 -0.0045133416948313059 -0.0196483048402936 0.0023628934482555733 -0.023654318202724262 -0.039234709713661733 -0.02056404109066395 -0.036452309802303282 -0.043950362318135629 -0.031524343699841681 -0.031937152475681609 -0.03064746260114716 -0.026234657072587708 -0.019775838946731784 -0.021385379996267564
leaf_weight=19.851202726364136 11.028445959091188 11.028445959091185 18.994738399982452 15.439824342727663 106.98765903711319 19.945061981678009 25.060383677482605 35.631266593933105 26.409608542919159 11.028445959091188 28.216396450996399 37.531913757324219 10.723403930664061 23.805018067359924 23.00721549987793 13.08161413669586 24.508961379528046 15.838725626468657 15.287303328514097 10.723403930664061 34.833464026451111 56.526652157306671 15.287303328514097 95.161410510540009 23.00721549987793 18.044414818286896 36.182688891887665 12.131290555000307 11.028445959091188 14.735881030559538 12.682712852954863 11.028445959091185 11.028445959091185 11.028445959091185 11.579868257045744 11.028445959091188 100.91028052568436 17.645513534545898
leaf_count=36 20 20 17 28 37 10 28 21 13 20 25 7 2 17 33 15 27 20 19 2 37 24 19 33 33 24 22 22 20 18 23 20 20 20 21 20 183 32
internal_value=0 -0.00522648 -0.0135322 0.00212568 0.00933377 -0.00106893 -0.00683481 0.00276707 0.00311896 -0.010428 0.00591674 0.00887065 0.0041856 0.00759976 -0.00769249 -0.0161576 -0.0190448 -0.00935757 0.0122883 0.0100617 0.0134816 0.0101133 0.0137721 0.00937127 -0.0174791 -0.00675103 -0.00376137 -0.0183363 -0.0228596 -0.0081286 -0.0266481 -0.036712 -0.0266814 -0.0355859 -0.0270696 -0.0208633 -0.0202518 -0.0232505
internal_weight=0 646.173 303.411 342.762 361.827 108.208 88.2628 76.6829 66.2059 41.0516 287.221 235.997 198.465 169.944 51.2236 28.5214 226.728 64.0588 128.094 117.371 102.084 91.3601 253.619 146.631 55.5411 41.8494 51.47 39.5499 162.67 39.7963 32.5339 22.0569 22.0569 22.0569 23.7112 140.613 111.939 28.674
internal_count=1008 788 463 325 220 109 99 78 59 57 233 175 168 125 58 43 385 90 84 82 63 61 111 74 92 41 41 63 295 46 59 40 40 40 43 255 203 52
is_linear=0
shrinkage=0.1


Tree=10
num_leaves=39
num_cat=0
split_feature=4 7 9 0 2 2 3 3 1 3 3 9 9 7 9 9 6 3 4 0 3 3 7 4 3 7 7 1 4 3 9 5 5 3 7 4 3 4
split_gain=4.08701 3.31416 3.03014 2.18934 1.47675 1.43994 3.19234 1.07086 1.05732 3.22177 1.52223 0.850593 0.769374 1.67743 1.43997 1.17986 0.617975 0.598441 0.591465 0.582705 0.558091 0.52973 0.270709 0.234504 0.178256 0.140864 0.112232 0.101275 0.0782966 0.0583735 0.0206483 0.0180901 0.0139152 0.0106798 0.00228541 0.000487908 0.000251257 7.35152e-05
threshold=183.50000000000003 2.590058999284091 419.50000000000006 1.0000000180025095e-35 1.0000000180025095e-35 1.0000000180025095e-35 145.99000000000004 141.30500000000004 1.0000000180025095e-35 139.69500000000002 141.90500000000003 474.10000000000008 529.80000000000007 1.7763799062508487 507.25000000000006 439.10000000000008 1.0000000180025095e-35 145.99000000000004 207.50000000000003 1.0000000180025095e-35 137.97000000000003 138.96500000000003 2.9622491592383655 155.95000000000002 138.05000000000004 1.7944600592163389 2.1357022987016294 1.0000000180025095e-35 220.15000000000003 139.95500000000001 594.65000000000009 1.0000000180025095e-35 1.0000000180025095e-35 143.14500000000001 1.9943835305508741 124.05000000000001 142.49000000000004 135.90000000000003
decision_type=2 2 2 2 2 2 2 2 2 2 2 2 2 2 2 2 2 2 2 2 2 2 2 2 2 2 2 2 2 2 2 2 2 2 2 2 2 2
left_child=1 2 23 7 -5 6 11 12 9 20 -11 -2 14 -14 15 -4 -6 26 -10 -20 -7 -17 -3 24 -1 31 30 32 -12 -15 34 -25 33 -26 36 -34 -9 -38
right_child=5 22 3 4 16 8 -8 17 18 10 28 -13 13 29 -16 21 -18 -19 19 -21 -22 -23 -24 25 27 -27 -28 -29 -30 -31 -32 -33 35 -35 -36 -37 37 -39
leaf_value=-0.011808788271759279 -0.010881808957578601 0.016190319862274032 0.01546117006106059 -0.012787213049361236 0.0042532811856391736 0.0076129483506480154 0.029648395443182742 -0.017913649865832614 0.020839708637204569 0.0015376815998354163 -0.026128123602208283 -0.039943570462095318 0.0088935129824390599 -0.033969681903068857 0.024698767426780305 -0.0023497774529341918 0.020468541317174075 0.00038277756292078447 0.00069708110104425738 0.015024537811532832 0.023500522990032621 -0.027804293859368528 0.0058047893431286838 -0.026392633226235231 -0.022472699048911429 -0.036822094607369141 -0.027751790853694787 -0.029204419828887326 -0.036586435122532256 -0.024800975577587321 -0.022339161305546196 -0.020980486676534897 -0.01852535313567312 -0.018670422936980634 -0.019044572953680738 -0.017660761648690109 -0.017572176438720003 -0.017219154441950969
leaf_weight=25.764326989650726 31.126028954982758 51.16495019197464 16.789049208164215 29.47176206111908 44.301502346992493 43.750080049037933 17.739372789859772 14.336979746818541 86.092273473739624 30.422085642814636 18.748358130455021 14.8884020447731 20.64900529384613 11.028445959091188 21.599328875541687 14.184458732604979 50.062105596065521 15.838725626468657 43.351178765296936 82.232317388057709 44.70040363073349 19.299780428409576 49.264303028583527 13.234135150909424 20.402625024318699 12.682712852954863 18.196935832500458 13.785557448863981 11.579868257045744 18.748358130455017 13.785557448863981 11.579868257045746 11.028445959091188 11.579868257045744 14.8884020447731 15.991246640682219 11.028445959091188 12.682712852954863
leaf_count=38 39 23 13 36 28 27 6 26 34 29 34 27 20 20 13 17 21 20 35 27 20 35 37 24 37 23 33 25 21 34 25 21 20 21 27 29 20 23
internal_value=0 -0.00543258 -0.00886973 -0.00390912 0.00675302 0.00746344 -0.00639114 -0.00982848 0.00991104 0.00346381 -0.0142674 -0.020285 -0.00353938 -0.0130086 0.00310422 -0.00617363 0.0128559 -0.0174621 0.0144554 0.0100787 0.0156421 -0.0170214 0.0110958 -0.0215181 -0.0189572 -0.0282488 -0.0207905 -0.0214875 -0.0301213 -0.0281968 -0.0188919 -0.023867 -0.0196845 -0.021096 -0.0179942 -0.0180137 -0.0175832 -0.0173834
internal_weight=0 583.37 482.94 346.892 123.835 424.63 63.7538 223.056 360.877 149.201 60.7503 46.0144 122.298 50.4258 71.8726 50.2733 94.3636 100.758 211.676 125.583 88.4505 33.4842 100.429 136.049 98.5521 37.4967 84.919 72.7877 30.3282 29.7768 66.7221 24.814 59.0022 31.9825 52.9365 27.0197 38.0481 23.7112
internal_count=1008 709 649 411 85 299 72 326 227 131 84 66 152 74 78 65 49 174 96 62 47 52 60 238 170 68 154 132 55 54 121 45 107 58 96 49 69 43
is_linear=0
shrinkage=0.1


Tree=11
num_leaves=39
num_cat=0
split_feature=4 7 9 0 2 7 0 2 7 3 7 3 7 9 3 3 9 7 9 9 6 3 3 9 3 3 7 4 7 7 3 7 0 3 9 9 9 7
split_gain=3.31048 2.68447 2.45442 1.77336 1.19616 1.18371 1.02106 1.84618 1.01342 0.867399 0.863893 1.36811 0.908108 1.15273 1.29576 1.46549 0.623192 1.35872 1.16638 0.955683 0.50056 0.484737 0.429081 0.399147 0.265055 0.400533 0.219274 0.189948 0.161549 0.438783 0.119204 0.0909083 0.0796878 0.0472825 0.0187188 0.0171726 0.00685799 0.00171113
threshold=183.50000000000003 2.590058999284091 419.50000000000006 1.0000000180025095e-35 1.0000000180025095e-35 0.79500000000000015 1.0000000180025095e-35 1.0000000180025095e-35 1.4509805119602299 141.30500000000004 2.5504065550465014 134.04000000000005 2.4681182625810147 299.50000000000006 141.90500000000003 139.11500000000004 529.80000000000007 1.7763799062508487 507.25000000000006 439.10000000000008 1.0000000180025095e-35 145.99000000000004 138.96500000000003 459.95000000000005 136.96000000000001 141.89500000000001 2.9622491592383655 155.95000000000002 2.0387034959354295 1.9276056934638164 140.08000000000001 2.1357022987016294 1.0000000180025095e-35 139.95500000000001 360.50000000000006 569.15000000000009 271.00000000000006 1.9943835305508741
decision_type=2 2 2 2 2 2 2 2 2 2 2 2 2 2 2 2 2 2 2 2 2 2 2 2 2 2 2 2 2 2 2 2 2 2 2 2 2 2
left_child=1 2 27 9 -5 -2 7 23 -9 16 12 -12 13 -10 15 -15 18 -18 19 -4 -6 31 -21 -7 -8 -26 -3 28 29 32 -29 35 36 -19 -32 37 -1 -11
right_child=5 26 3 4 20 6 24 8 10 21 11 -13 -14 14 -16 -17 17 33 -20 22 -22 -23 -24 -25 25 -27 -28 30 -30 -31 34 -33 -34 -35 -36 -37 -38 -39
leaf_value=-0.018497094724351914 -0.039313051413899257 0.014571287216393289 0.013915053618550314 -0.011508491800042001 0.0038279532318906372 -0.0089539089351051808 0.020394185915996659 -0.022866159474782603 0.024879379609850382 -0.015631191917913526 0.020201830579808823 -0.013738278037695541 0.028151923929168429 -0.011307354564023625 -0.021853873901360787 0.019979524772609537 0.0080041628171709425 -0.030572713469553727 0.022228889756200215 -0.0021147994450089465 0.018421687730162582 0.00034450018295093156 -0.025023864596966025 -0.030784023681845629 0.0053144404069278639 0.016055326177885854 0.0052243110319118539 -0.033859032464265595 -0.027101139717085033 0.0027979746177888105 -0.019239802858138422 -0.024976611371167058 -0.023893514778639768 -0.022320877912530832 -0.024645469997261811 -0.019568998647170814 -0.015755412792175665 -0.016967428344454798
leaf_weight=11.579868257045744 5.5142229795455924 51.16495019197464 16.789049208164215 29.47176206111908 44.301502346992493 19.147259414196014 38.634758353233337 11.028445959091185 30.668465912342072 34.739604771137238 17.739372789859772 35.936308622360229 29.014199018478394 23.406116783618927 17.645513534545898 41.544390857219696 20.64900529384613 11.028445959091188 21.599328875541687 14.184458732604979 50.062105596065521 15.838725626468657 19.299780428409576 14.8884020447731 65.196887910366058 74.266024947166443 49.264303028583527 11.579868257045744 13.785557448863981 11.427347242832182 14.336979746818544 18.196935832500458 18.748358130455017 18.748358130455017 11.579868257045744 18.748358130455017 43.010939240455627 13.234135150909422
leaf_count=21 10 23 13 36 28 26 9 20 12 63 6 39 9 25 32 23 20 20 13 17 21 20 35 27 31 30 37 21 25 12 26 33 34 34 21 34 78 24
internal_value=0 -0.00488933 -0.00798276 -0.00351821 0.00607772 0.0067171 0.00732271 0.0030798 0.00662885 -0.00884563 0.00828885 -0.00252135 0.0123671 0.00832358 0.00217629 0.00870472 -0.00318544 -0.0117077 0.00279379 -0.00555627 0.0115703 -0.0157159 -0.0153192 -0.0185032 0.0130646 0.0110341 0.00998625 -0.0193663 -0.0170615 -0.0154287 -0.025424 -0.0187114 -0.0182687 -0.0253771 -0.0216551 -0.0170027 -0.016337 -0.0159998
internal_weight=0 583.37 482.94 346.892 123.835 424.63 419.116 241.018 206.983 223.056 195.954 53.6757 142.279 113.264 82.596 64.9505 122.298 50.4258 71.8726 50.2733 94.3636 100.758 33.4842 34.0357 178.098 139.463 100.429 136.049 98.5521 84.7665 37.4967 84.919 73.3392 29.7768 25.9168 66.7221 54.5908 47.9737
internal_count=1008 709 649 411 85 299 289 219 166 326 146 45 101 92 80 48 152 74 78 65 49 174 52 53 70 61 60 238 170 145 68 154 133 54 47 121 99 87
is_linear=0
shrinkage=0.1


Tree=12
num_leaves=39
num_cat=0
split_feature=0 7 5 7 4 4 3 6 7 7 7 7 9 4 4 1 1 3 4 2 7 7 7 1 3 3 4 3 3 9 3 9 4 5 3 9 9 3
split_gain=2.73117 2.2524 1.27773 1.25726 1.8482 1.02625 0.945997 1.04106 0.928153 1.68363 0.991757 0.889554 0.828909 0.950517 1.73375 0.732307 0.581969 0.844797 0.526827 0.343399 0.31318 0.283237 0.757763 0.414345 0.258004 0.302987 0.0627395 0.0604425 0.0497561 0.0223509 0.0155421 0.015646 0.00866319 0.00810292 0.00517342 0.00274876 0.00129766 0.0007631
threshold=1.0000000180025095e-35 2.1440457292773245 1.0000000180025095e-35 2.0317762093882807 125.25000000000001 168.50000000000003 139.55500000000004 1.0000000180025095e-35 2.2103799750388684 2.4681182625810147 2.3697944271593152 2.9622491592383655 304.50000000000006 126.30000000000001 143.95000000000002 1.0000000180025095e-35 1.0000000180025095e-35 140.57500000000002 194.75000000000003 1.0000000180025095e-35 1.1950000000000001 1.9943835305508741 1.9674642135505933 1.0000000180025095e-35 139.83500000000004 142.14500000000001 155.56500000000003 141.48500000000004 140.94000000000003 591.50000000000011 141.30500000000004 360.50000000000006 139.54500000000004 1.0000000180025095e-35 140.66500000000005 332.50000000000006 451.50000000000006 143.77000000000001
decision_type=2 2 2 2 2 2 2 2 2 2 2 2 2 2 2 2 2 2 2 2 2 2 2 2 2 2 2 2 2 2 2 2 2 2 2 2 2 2
left_child=1 5 8 4 -2 21 7 -7 -3 10 26 18 -6 -14 -15 20 17 -4 -11 -16 -8 22 23 29 -21 -26 -10 -22 -23 30 31 -1 -30 -29 -33 -32 -37 -38
right_child=3 2 16 -5 12 6 15 -9 9 11 -12 -13 13 14 19 -17 -18 -19 -20 24 27 28 -24 -25 25 -27 -28 33 32 -31 35 34 -34 -35 -36 36 37 -39
leaf_value=-0.014066256143884286 -0.029499175758241347 0.018704088707584745 0.011275166925024525 0.015222459450036209 -0.027054657054211985 -0.0050413199325443246 -0.0022309228758431213 0.021924543843116432 -0.023552986431023243 0.0061151939729215234 0.0020699098589947438 -0.0030430843149411588 0.045834262357822904 -0.03065795390391135 -0.0011325241255689502 0.0093461739505815433 -0.024530623770664881 -0.017815528728726653 0.020735240918903275 0.0028513043839223677 -0.022318959203455876 -0.025147398880586303 0.012295270756633401 0.0020175670273212287 0.015874460563123072 0.0053546503219667405 -0.033962574708233363 -0.016550276748782917 -0.016729227771807027 -0.01998168952662055 -0.015799168452085437 -0.019049540620892081 -0.020114491134801619 -0.013513902659751649 -0.016481311148633642 -0.013690765672832644 -0.014103327627487689 -0.015201348521437816
leaf_weight=15.439824342727659 16.54266893863678 45.251825928688049 19.546160697937012 121.96992033720016 7.7199121713638297 32.076352536678314 17.492992520332336 25.8581862449646 11.579868257045748 50.214626610279083 18.994738399982452 50.367147624492645 5.9131242632865897 12.682712852954863 37.438054502010345 16.789049208164215 19.851202726364136 20.402625024318695 48.407838702201843 42.647235453128815 18.196935832500458 16.54266893863678 11.978769540786741 14.735881030559538 73.163180351257324 43.750080049037933 11.579868257045744 20.402625024318695 15.991246640682222 11.028445959091185 11.028445959091185 18.196935832500461 14.336979746818541 15.439824342727659 13.785557448863981 35.291027069091797 13.234135150909426 12.131290555000303
leaf_count=28 30 21 18 38 14 32 23 12 21 30 17 39 2 23 33 13 36 37 18 25 33 30 13 18 28 27 21 37 29 20 20 33 26 28 25 64 24 22
internal_value=0 -0.00389511 0.00252258 0.00695614 0.00275262 -0.0093266 -0.0029356 0.00699448 0.00582598 0.00277719 -0.0148669 0.00776933 0.00514177 0.00629465 0.00517961 -0.00944924 -0.0105361 -0.00358202 0.0132913 0.00748682 -0.0138606 -0.0139148 -0.0118766 -0.0138752 0.0095092 0.0119378 -0.0287578 -0.0176253 -0.0207358 -0.0156748 -0.015276 -0.0166805 -0.0183295 -0.0152423 -0.0179425 -0.0143469 -0.0140829 -0.0146285
internal_weight=0 646.173 296.196 361.827 239.857 349.977 146.256 57.9345 236.396 191.144 42.1545 148.99 223.314 215.594 209.681 88.3214 59.8 39.9488 98.6225 196.999 71.5324 203.721 156.85 144.872 159.56 116.913 23.1597 54.0394 46.8709 130.136 119.107 47.4223 30.3282 35.8424 31.9825 71.6849 60.6565 25.3654
internal_count=1008 788 258 220 182 530 178 44 167 146 59 87 152 138 136 134 91 55 48 113 121 352 267 254 80 55 42 98 85 236 216 86 55 65 58 130 110 46
is_linear=0
shrinkage=0.1


Tree=13
num_leaves=39
num_cat=0
split_feature=0 3 2 3 4 7 4 7 8 6 7 7 3 9 9 7 7 3 3 9 4 4 9 9 9 9 9 9 3 7 7 1 4 7 7 7 4 9
split_gain=2.21225 1.86377 1.16609 1.08106 1.10838 1.01838 1.49704 0.913401 1.18227 1.4273 0.811033 0.846107 0.819262 0.716628 0.718299 0.710042 1.69367 0.729228 1.02286 0.671416 0.769919 1.40434 0.51556 0.334141 1.46862 0.65074 1.06083 0.281447 0.240166 0.238492 0.321122 0.174054 0.087952 0.0865569 0.0793564 0.0604053 0.0583141 0.0298418
threshold=1.0000000180025095e-35 141.90500000000003 1.0000000180025095e-35 138.99500000000003 168.50000000000003 2.0317762093882807 125.25000000000001 2.1315577756237412 1.0000000180025095e-35 1.0000000180025095e-35 1.4509805119602299 1.7361160107950966 136.45000000000002 374.05000000000007 568.25000000000011 2.6665421462066772 2.4888104888219202 145.99000000000004 146.24500000000003 304.50000000000006 126.30000000000001 143.95000000000002 434.00000000000006 378.50000000000006 423.50000000000006 445.65000000000003 487.50000000000006 374.05000000000007 139.39500000000001 2.1953942684989127 2.6950000000000007 1.0000000180025095e-35 155.95000000000002 2.029179917638714 2.1357022987016294 1.9526392034528985 163.50000000000003 593.15000000000009
decision_type=2 2 2 2 2 2 2 2 2 2 2 2 2 2 2 2 2 2 2 2 2 2 2 2 2 2 2 2 2 2 2 2 2 2 2 2 2 2
left_child=1 2 3 33 35 6 -2 10 9 13 36 -12 -13 -9 29 16 17 31 -19 -8 -21 -22 27 -23 -25 -26 -27 -14 -16 -15 -31 34 -24 -1 37 -5 -4 -3
right_child=5 15 7 4 -6 -7 19 8 -10 -11 11 12 22 14 28 -17 -18 18 -20 20 21 23 32 24 25 26 -28 -29 -30 30 -32 -33 -34 -35 -36 -37 -38 -39
leaf_value=-0.022937944922465744 -0.026549258628299002 -0.012973481945665078 -0.014923948488240952 -0.014975420338615777 0.0076237629687974789 0.013700213370644721 -0.024349190967571509 -0.03709975006376303 -0.011886664629257375 0.027265193241713444 0.016715556592932359 0.011447411368423446 -0.010738569075423018 0.019727685495809132 -0.010405183513731348 -0.033095524200787978 0.018902393438305957 0.015980416838421357 -0.019402405110680834 0.041250839177558674 -0.027592158501771026 0.014279944533707893 -0.016597977402433742 -0.024903071755869959 0.019432178572965902 -0.015872679361045635 0.0090591009621661597 0.0080613146451972064 0.004269107108254646 0.0017004045036326952 0.014975133247669163 -0.026083458067464108 -0.028808546947190629 -0.03546671993737982 -0.020735469986865943 -0.024529846570185417 -0.024176452993371338 -0.018113864713323293
leaf_weight=11.028445959091188 16.54266893863678 103.11596971750259 16.542668938636783 16.542668938636783 37.438054502010345 121.96992033720016 7.7199121713638297 3.8599560856819144 28.92033976316452 37.531913757324219 24.356440365314484 22.702173471450806 19.147259414196014 25.30676394701004 25.060383677482605 13.785557448863981 18.84221738576889 18.994738399982452 14.336979746818541 5.9131242632865897 12.682712852954863 45.251825928688049 12.682712852954866 15.287303328514097 35.478745579719543 21.751849889755249 79.228825628757477 13.633036434650419 20.097582995891571 35.783787608146667 37.133012473583221 14.336979746818541 11.028445959091185 11.028445959091185 17.645513534545898 11.028445959091185 11.579868257045744 12.682712852954863
leaf_count=20 30 187 30 30 33 38 14 7 35 7 18 15 26 11 28 25 8 17 26 2 23 21 23 19 12 22 39 16 19 30 15 26 20 20 32 20 21 23
internal_value=0 -0.0035056 0.000270171 -0.0100723 -0.00358166 0.00626053 0.00247736 0.00287748 0.00691433 0.00985702 -0.00367399 0.000416009 -0.00459701 0.00541967 0.00656433 -0.0111446 -0.00963125 -0.0125998 0.000761195 0.0046276 0.00566518 0.00466165 -0.0110448 0.00673814 0.00448913 0.00778188 0.00368864 -0.00291986 -0.00387438 0.0113635 0.00846058 -0.0156133 -0.0222773 -0.0292023 -0.0144884 -0.0187972 -0.0187338 -0.0135365
internal_weight=0 646.173 432.432 87.0661 65.0092 361.827 239.857 345.366 213.694 184.773 131.673 103.55 79.1936 147.241 143.382 213.741 199.955 181.113 33.3317 223.314 215.594 209.681 56.4915 196.999 151.747 136.459 100.981 32.7803 45.158 98.2236 72.9168 147.781 23.7112 22.0569 133.444 27.5711 28.1225 115.799
internal_count=1008 788 444 123 83 220 182 321 152 117 169 118 100 110 103 344 319 311 43 152 138 136 85 113 92 73 61 42 47 56 45 268 43 40 242 50 51 210
is_linear=0
shrinkage=0.1


Tree=14
num_leaves=39
num_cat=0
split_feature=4 7 9 9 2 4 0 4 7 3 2 9 7 7 9 6 3 1 3 0 7 4 3 5 3 4 9 4 7 7 3 7 0 3 4 9 3 9
split_gain=1.82492 1.71195 1.5697 1.26921 1.2508 1.47369 1.26997 1.17532 0.806919 0.72208 1.89656 0.685224 0.9038 0.670737 0.639301 0.620415 0.603729 1.21444 0.768732 0.570331 0.335825 0.322533 0.322446 0.275005 0.224898 0.219655 0.189594 0.171081 0.141052 0.248445 0.109914 0.107441 0.0366114 0.0293166 0.0231269 0.0160845 0.00803293 0.00510026
threshold=183.50000000000003 2.6135788829658702 419.50000000000006 434.00000000000006 1.0000000180025095e-35 168.50000000000003 1.0000000180025095e-35 127.25000000000001 0.79500000000000015 145.99000000000004 1.0000000180025095e-35 484.50000000000006 2.1953942684989127 2.1440457292773245 474.10000000000008 1.0000000180025095e-35 139.95500000000001 1.0000000180025095e-35 141.90500000000003 1.0000000180025095e-35 2.5342132384752882 123.50000000000001 137.89000000000001 1.0000000180025095e-35 138.99500000000003 201.25000000000003 378.50000000000006 155.95000000000002 2.0387034959354295 1.9276056934638164 140.08000000000001 2.0900445255488598 1.0000000180025095e-35 141.43500000000003 212.70000000000002 360.50000000000006 141.30500000000004 276.25000000000006
decision_type=2 2 2 2 2 2 2 2 2 2 2 2 2 2 2 2 2 2 2 2 2 2 2 2 2 2 2 2 2 2 2 2 2 2 2 2 2 2
left_child=1 2 27 -4 5 19 7 13 -2 10 14 12 -9 21 -10 -8 20 18 -18 31 24 -6 -3 -13 26 -19 -12 28 29 32 -29 36 37 -25 -20 -32 -5 -1
right_child=8 22 3 4 6 -7 15 11 9 -11 16 23 -14 -15 -16 -17 17 25 34 -21 -22 -23 -24 33 -26 -27 -28 30 -30 -31 35 -33 -34 -35 -36 -37 -38 -39
leaf_value=-0.014047560211753707 -0.033017224494507877 -0.0006813906049602448 0.014151045226590109 -0.015696009123579085 -0.014886748075312982 0.012149402246851487 -0.00092973551097718223 -0.016280163004565418 -0.0070079562681901915 0.018285224785077513 0.014696273816295522 -0.030256200188173529 0.016690803355834557 0.016398495924562453 -0.03283363982457476 0.015941418209420088 0.0013071180185555808 0.016001254836374778 -0.019867087883734619 -0.038398097285527961 0.0038781971346783378 0.0061257581887063997 0.012426058003563311 -0.018115908828018751 0.018444680835485183 0.0054969812382135623 0.0052584561968468113 -0.028973274320512062 -0.022318421370935707 0.0023034651330699897 -0.015015664939289439 -0.025343385251808632 -0.017361201069020105 -0.01223165064273686 -0.025908917356053957 -0.02002654536952575 -0.012782317010180278 -0.011722603612528696
leaf_weight=12.131290555000303 5.5142229795455924 26.010707259178162 40.594067275524139 17.645513534545898 16.542668938636783 15.686204612255095 38.939800381660461 20.402625024318695 28.92033976316452 39.890123963356018 42.494714438915253 19.851202726364136 14.031937718391417 26.010707259178162 14.336979746818541 49.510683298110962 28.767818748950958 29.565621316432953 14.888402044773104 15.991246640682219 56.127750873565674 13.08161413669586 67.402577102184296 18.748358130455017 49.510683298110962 60.938030540943146 42.647235453128815 11.579868257045744 13.785557448863981 11.427347242832182 14.336979746818544 11.028445959091185 18.748358130455017 15.439824342727659 11.028445959091185 11.579868257045744 20.402625024318695 42.459516942501068
leaf_count=22 10 21 30 32 30 11 27 37 35 20 16 36 8 21 26 20 26 10 27 29 32 15 35 34 20 32 25 21 25 12 26 20 34 28 20 21 37 77
internal_value=0 -0.00363016 -0.00599553 -0.00248614 -0.00464172 -0.0153641 -0.000918485 -0.0067079 0.00498722 0.00548724 0.00414104 -0.0138693 -0.00284463 0.00468059 -0.0155675 0.00851399 0.00667859 0.0018193 -0.00994651 -0.0219969 0.0103766 -0.00560796 0.00877632 -0.0208944 0.0130854 0.0089285 0.00996891 -0.0151246 -0.0129373 -0.0114116 -0.0208736 -0.0166526 -0.0135486 -0.0154585 -0.0224381 -0.0172546 -0.0141336 -0.0122393
internal_weight=0 583.37 489.956 353.908 313.313 80.754 232.559 144.109 424.63 419.116 379.226 88.4739 34.4346 55.635 43.2573 88.4505 335.969 145.188 54.6847 65.0678 190.78 29.6243 93.4133 54.0394 134.653 90.5037 85.1419 136.049 98.5521 84.7665 37.4967 49.0766 73.3392 34.1882 25.9168 25.9168 38.0481 54.5908
internal_count=1008 709 653 415 385 129 256 209 299 289 269 143 45 66 61 47 208 115 73 118 93 45 56 98 61 42 41 238 170 145 68 89 133 62 47 47 69 99
is_linear=0
shrinkage=0.1


Tree=15
num_leaves=39
num_cat=0
split_feature=0 3 7 4 7 7 7 4 7 7 4 3 3 7 3 3 3 4 2 9 7 4 3 7 4 7 7 7 3 4 1 4 7 4 9 9 4 4
split_gain=1.52715 1.28179 0.806624 1.03799 0.774856 0.956763 1.71459 0.70302 0.622304 1.21751 0.567206 0.646662 1.46999 0.478201 0.465375 0.809547 0.46399 0.716 1.47164 0.66606 0.462747 0.629149 0.435989 0.586592 0.616722 0.392868 1.39741 0.338661 0.278405 0.274402 0.153239 0.0944335 0.0605958 0.0244101 0.0238621 0.0178597 0.0157615 0.0104971
threshold=1.0000000180025095e-35 141.90500000000003 2.0317762093882807 125.25000000000001 2.1315577756237412 2.2103799750388684 2.355622414787748 131.90000000000003 2.6665421462066772 2.4888104888219202 136.90000000000003 134.55000000000004 137.97000000000003 2.0614031006383722 145.99000000000004 146.24500000000003 145.99000000000004 126.30000000000001 1.0000000180025095e-35 445.65000000000003 1.1850000000000003 126.30000000000001 141.19127993279292 1.8418448707110886 189.85000000000002 1.0750000000000004 1.3815633902769773 2.6950000000000007 139.215 190.71517535888478 1.0000000180025095e-35 166.50000000000003 2.1357022987016294 172.80000000000004 587.50000000000011 299.50000000000006 197.90000000000003 115.50000000000001
decision_type=2 2 2 2 2 2 2 2 2 2 2 2 2 2 2 2 2 2 2 2 2 2 2 2 2 2 2 2 2 2 2 2 2 2 2 2 2 2
left_child=1 4 3 -2 13 -6 31 -8 9 14 -9 -12 -13 20 30 -16 17 -5 19 -19 33 37 23 24 -23 -20 -27 -14 -25 -28 32 -7 34 -1 35 -3 -37 -22
right_child=2 8 -4 16 5 6 7 10 -10 -11 11 12 27 -15 15 -17 -18 18 25 -21 21 22 -24 28 -26 26 29 -29 -30 -31 -32 -33 -34 -35 -36 36 -38 -39
leaf_value=-0.012539136796304935 -0.022335282160880196 -0.01403775344017294 0.011822748616854549 0.036004511905220665 0.01579380717616919 -0.018630682151244669 -0.015788465002001036 0.038305185452118695 -0.029797683814361417 0.016361533738659857 0.015253723737256794 -0.024188629963667371 -0.00071203847415904321 -0.020801251102859325 0.013865291197301344 -0.017612518118286898 0.014705334858040729 -0.0078447518701953919 0.014060243121473956 -0.03985214722076208 -0.016069249508064262 -0.00053649092669848057 0.015012424039046344 0.011225631959744973 -0.027166348496232597 -0.032216088893046856 -1.4207470132208447e-05 0.012363185067451651 -0.0026886733633953923 0.0097907098401128177 -0.022579356510035817 -0.031283178131341315 -0.017158588366230763 -0.018654555726900272 -0.014772819621846844 -0.010372580301019518 -0.0064216370949629793 -0.012115858331499493
leaf_weight=15.991246640682222 16.54266893863678 11.579868257045744 121.96992033720016 5.9131242632865897 53.370639383792877 12.682712852954866 15.838725626468657 5.3617019653320304 13.785557448863981 18.84221738576889 44.148981332778931 19.147259414196014 35.232365310192108 16.54266893863678 18.994738399982452 14.336979746818541 32.32273280620575 15.83872562646866 32.874155104160309 11.028445959091185 15.991246640682222 23.558637797832489 22.150751173496246 35.631266593933105 13.785557448863981 11.028445959091185 55.177427291870117 45.251825928688049 24.110060095787048 59.131242632865906 14.336979746818541 11.028445959091185 17.645513534545898 11.028445959091185 13.785557448863981 78.853388607501984 11.579868257045744 11.579868257045744
leaf_count=29 30 21 38 2 27 23 20 1 25 8 19 26 29 30 17 26 15 20 16 20 29 34 14 21 25 20 39 21 35 20 26 20 32 20 25 143 21 21
internal_value=0 -0.00291264 0.00520158 0.00183464 0.000218615 0.00397255 0.00062896 0.00424275 -0.00924769 -0.0078309 0.00637004 0.00517915 0.000714874 -0.00455466 -0.0103478 0.000325734 0.0036251 0.00174992 0.000655506 -0.0209832 -0.00300851 -0.000795013 0.00235292 -0.000535434 -0.0103669 0.00433015 0.00177808 0.00663944 0.00561018 0.00505782 -0.0127552 -0.0245156 -0.0116997 -0.0150352 -0.0108678 -0.0103401 -0.00986667 -0.0144088
internal_weight=0 646.173 361.827 239.857 432.432 242.063 188.692 164.981 213.741 199.955 149.142 143.78 99.6315 190.37 181.113 33.3317 223.314 190.992 185.078 26.8672 173.827 146.807 119.236 97.0855 37.3442 158.211 125.337 80.4842 59.7413 114.309 147.781 23.7112 133.444 27.0197 115.799 102.013 90.4333 27.5711
internal_count=1008 788 220 182 444 186 159 116 344 319 96 95 76 258 311 43 152 137 135 40 228 179 129 115 59 95 79 50 56 59 268 43 242 49 210 185 164 50
is_linear=0
shrinkage=0.1


Tree=16
num_leaves=39
num_cat=0
split_feature=0 3 2 3 4 7 4 4 4 4 9 4 3 6 3 9 4 4 9 7 3 9 7 9 9 9 7 9 4 3 7 5 7 7 7 3 4 9
split_gain=1.23699 1.03825 0.666296 0.720308 0.712756 0.653365 0.840769 0.535611 1.07654 0.524653 1.15606 0.743735 0.567392 0.405567 0.468569 0.400868 0.489304 0.879006 0.302017 0.516995 0.552494 0.270642 0.253831 0.222996 1.08345 0.504925 0.967747 0.482374 0.181923 0.492128 0.202996 0.361637 0.163763 0.0744484 0.04109 0.0383441 0.0179941 0.00641222
threshold=1.0000000180025095e-35 141.90500000000003 1.0000000180025095e-35 138.99500000000003 168.50000000000003 2.0317762093882807 125.25000000000001 261.50000000000006 199.05000000000004 178.50000000000003 426.06500000000005 157.50000000000003 132.63500000000002 1.0000000180025095e-35 139.11500000000004 302.00000000000006 126.30000000000001 143.95000000000002 529.80000000000007 2.6665421462066772 140.98000000000005 492.50000000000006 2.4888104888219202 378.50000000000006 423.50000000000006 445.65000000000003 1.0550000000000004 489.20000000000005 127.25000000000001 145.92500000000004 2.1357022987016294 1.0000000180025095e-35 1.9276056934638164 2.029179917638714 1.9526392034528985 145.99000000000004 120.45000000000002 334.75000000000006
decision_type=2 2 2 2 2 2 2 2 2 2 2 2 2 2 2 2 2 2 2 2 2 2 2 2 2 2 2 2 2 2 2 2 2 2 2 2 2 2
left_child=1 2 3 33 34 6 -2 8 28 10 32 12 -12 14 -11 -8 -17 -18 -14 20 -20 -15 -10 -19 -25 -26 -27 -28 29 36 35 -32 -4 -1 -5 37 -3 -30
right_child=5 7 9 4 -6 -7 15 -9 22 13 11 -13 18 21 -16 16 17 23 19 -21 -22 -23 -24 24 25 26 27 -29 30 -31 31 -33 -34 -35 -36 -37 -38 -39
leaf_value=-0.017426702202364173 -0.020101753947958947 -0.0098218247419003309 -0.010688983061201043 -0.011372469224518431 0.006662681591647142 0.010640473955529186 -0.020002365393137031 -0.02978460852687035 8.4342109137608279e-05 -0.0051811444534254035 0.0271016575166102 -0.011325680114887937 0.0095981972167393723 0.0039691322958491128 0.0092199632333480885 0.032404062302307989 -0.022283628841164679 0.010989951769389942 -0.020329753429533543 0.010875662362316038 0.0064477274372017933 0.01671417967907541 0.015738121903606142 -0.022216560745137243 0.016119266239099438 0.020225861628330722 -0.0159486282342188 0.0017329058165329169 -0.012033981953258298 0.012420837297184302 -0.031910642188945564 -0.0085125236186343722 -0.023578694788661092 -0.029046147555686852 -0.019252638518987161 -0.015925336129889164 -0.014576022284596868 -0.0094766707938593771
leaf_weight=11.028445959091188 16.54266893863678 23.159736514091492 21.505469620227814 16.542668938636783 37.438054502010345 121.96992033720016 7.1684898734092704 11.028445959091185 23.00721549987793 46.108290255069733 11.826248526573179 30.023184359073639 49.264303028583527 26.562129557132721 44.301502346992493 5.9131242632865897 12.682712852954863 45.803248226642609 18.748358130455021 21.047906577587128 13.08161413669586 44.70040363073349 18.84221738576889 15.287303328514097 35.478745579719543 23.101074755191803 21.20042759180069 56.679173171520233 11.579868257045744 11.427347242832182 13.785557448863983 12.682712852954865 18.196935832500458 11.028445959091185 11.028445959091185 12.131290555000303 12.131290555000303 63.964986562728882
leaf_count=20 30 42 39 30 33 38 13 20 33 40 4 37 37 22 28 2 23 22 34 12 15 20 8 19 12 7 21 33 21 12 25 23 33 20 20 22 22 116
internal_value=0 -0.00262138 0.000196753 -0.00762115 -0.00232305 0.00468142 0.00165117 -0.00832292 -0.00715531 0.00216763 -0.00148888 0.00267678 0.0063655 0.00632219 0.00187551 0.00326259 0.00403417 0.00323622 0.00396463 -0.00128396 -0.00932463 0.0119636 0.00713227 0.0048746 0.00302874 0.00585692 0.00225133 -0.00308037 -0.0108723 -0.00561577 -0.0130238 -0.020699 -0.0165968 -0.0232364 -0.0145245 -0.0107067 -0.0114561 -0.00986867
internal_weight=0 646.173 432.432 87.0661 65.0092 361.827 239.857 213.741 202.712 345.366 183.694 143.992 113.968 161.672 90.4098 223.314 216.146 210.233 102.142 52.8779 31.83 71.2625 41.8494 197.55 151.747 136.459 100.981 77.8796 160.863 46.7184 114.144 26.4683 39.7024 22.0569 27.5711 87.6761 35.291 75.5449
internal_count=1008 788 444 123 83 220 182 344 324 321 211 139 102 110 68 152 139 137 98 61 49 42 41 114 92 73 61 54 283 76 207 48 72 40 50 159 64 137
is_linear=0
shrinkage=0.1


Tree=17
num_leaves=39
num_cat=0
split_feature=0 3 3 9 7 4 7 4 9 5 7 7 9 9 4 3 7 7 4 7 1 7 4 4 3 7 9 3 9 4 4 3 4 3 9 7 9 4
split_gain=1.00197 0.887419 1.19525 1.11789 1.17218 1.03179 0.529226 0.681023 0.38007 0.926993 0.396658 0.45952 0.42339 0.445349 0.379756 0.359956 0.499796 0.747035 1.67004 0.678378 0.295715 0.27004 0.243892 0.21314 0.161815 0.116542 0.0519052 0.0486853 0.0562928 0.0442015 0.0400183 0.030273 0.0143735 0.0117 0.00503273 0.00313832 0.00314114 0.00176739
threshold=1.0000000180025095e-35 139.68500000000003 138.99500000000003 641.00000000000011 2.3697944271593152 231.20000000000002 2.0317762093882807 125.25000000000001 557.55500000000018 1.0000000180025095e-35 1.9869508883177891 2.0614031006383722 468.60000000000008 509.50000000000006 167.50000000000003 144.18000000000004 1.6004561189802455 1.0550000000000004 174.05000000000004 1.7503693570440815 1.0000000180025095e-35 1.9161554124540334 149.50000000000003 127.25000000000001 139.11500000000004 2.0968237923435176 485.35000000000008 141.72500000000002 271.00000000000006 166.50000000000003 174.05000000000004 145.99000000000004 129.95000000000002 140.94000000000003 477.50000000000006 1.9113202118372148 406.10000000000008 156.50000000000003
decision_type=2 2 2 2 2 2 2 2 2 2 2 2 2 2 2 2 2 2 2 2 2 2 2 2 2 2 2 2 2 2 2 2 2 2 2 2 2 2
left_child=1 2 3 4 5 14 7 -2 10 23 27 -12 20 -14 22 16 17 -9 -19 -18 -13 -11 25 -10 -4 -1 -6 30 -29 32 33 34 -23 -3 35 36 37 -30
right_child=6 8 24 -5 26 -7 -8 15 9 21 11 12 13 -15 -16 -17 19 18 -20 -21 -22 29 -24 -25 -26 -27 -28 28 31 -31 -32 -33 -34 -35 -36 -37 -38 -39
leaf_value=-0.01157488074264279 -0.018091578442959316 -0.013369551893047527 0.0088853399971398819 -0.02359557079562561 0.0063936857960676984 0.0067930267219344642 0.0095764265062211213 0.0050685950039583722 0.019481036170902782 0.001815506624304174 0.0086984120667681387 -0.0061198083394055072 0.0066474314759576159 -0.012375709933296153 -0.032442522763751508 0.011693259778839364 0.014415088989541983 -0.00035386244405869832 -0.043507948624275435 -0.0017540253921026192 -0.025079576771821752 -0.01411556743440935 0.00047676418377006402 0.0050839837222594504 0.018413883336654353 -0.024264512844795239 0.011492087378143606 -0.016226437461404203 -0.0079458082016642898 -0.01890297651832477 -0.017160625450508411 -0.012822745038584779 -0.0098367361805637953 -0.0096611362578680731 -0.0064792229957471303 -0.0098337643768437732 -0.0090081956469676792 -0.0063669196458055605
leaf_weight=19.29978042840958 16.54266893863678 14.8884020447731 40.594067275524139 21.352948606014252 35.079844295978546 31.923831522464752 121.96992033720016 38.939800381660461 13.480515420436857 15.838725626468657 26.163228273391724 16.941570222377777 31.372409224510193 20.250104010105133 11.028445959091185 38.787279367446899 47.856416404247284 27.817495167255402 13.234135150909422 56.679173171520233 15.991246640682219 13.234135150909422 11.978769540786741 43.351178765296936 31.77131050825119 11.579868257045744 46.354670524597168 11.028445959091185 19.851202726364139 11.028445959091185 17.094091236591339 14.8884020447731 19.299780428409576 19.851202726364136 18.748358130455017 11.579868257045744 19.299780428409576 11.028445959091185
leaf_count=35 30 27 30 30 20 23 38 27 7 20 30 22 22 28 20 18 17 33 24 33 29 24 13 35 14 21 23 20 36 20 31 27 35 36 34 21 35 20
internal_value=0 -0.00235924 0.00214321 -0.00204894 0.000702016 -0.00745353 0.00421328 0.00148606 -0.00540946 -0.000631132 -0.00747432 -0.00288315 -0.00646673 -0.000814828 -0.0158935 0.00293633 0.00109563 -0.00485381 -0.0142658 0.0056482 -0.0153261 -0.00936632 -0.0116351 0.00849897 0.0130688 -0.0163335 0.00929583 -0.0106863 -0.00946228 -0.0134319 -0.0131996 -0.0086803 -0.0115773 -0.0112505 -0.00791423 -0.00834985 -0.00800741 -0.00738192
internal_weight=0 646.173 260.964 188.598 167.245 85.8107 361.827 239.857 385.21 116.233 268.977 110.719 84.5553 51.6225 53.8869 223.314 184.527 79.9914 41.0516 104.536 32.9328 59.4011 42.8584 56.8317 72.3654 30.8796 81.4345 158.258 106.425 43.5624 51.8337 95.3961 32.5339 34.7396 80.5077 61.7593 50.1794 30.8796
internal_count=1008 788 229 185 155 112 220 182 559 141 418 131 101 50 89 152 134 84 57 50 51 99 69 42 44 56 43 287 193 79 94 173 59 63 146 112 91 56
is_linear=0
shrinkage=0.1


Tree=18
num_leaves=39
num_cat=0
split_feature=4 7 4 9 9 2 4 0 4 7 3 2 7 3 1 8 0 9 7 9 7 3 6 4 9 3 4 5 4 0 4 7 7 7 3 4 9 3
split_gain=0.860328 0.894921 1.04404 0.734573 0.712948 0.741819 1.2929 0.751191 0.729521 0.568594 0.497102 1.10003 0.45698 0.462377 0.567392 0.539057 0.453668 0.426234 0.409613 0.382982 0.553404 0.303186 0.29096 0.558108 0.24584 0.181664 0.171868 0.127124 0.0883873 0.237125 0.215106 0.0821466 0.0743328 0.0356562 0.0318901 0.00732407 0.0057453 0.00579934
threshold=183.50000000000003 2.6135788829658702 174.90000000000003 419.50000000000006 434.00000000000006 1.0000000180025095e-35 168.50000000000003 1.0000000180025095e-35 127.25000000000001 0.79500000000000015 145.99000000000004 1.0000000180025095e-35 3.0197239022698716 139.95500000000001 1.0000000180025095e-35 1.0000000180025095e-35 1.0000000180025095e-35 474.10000000000008 2.1440457292773245 484.50000000000006 2.1953942684989127 137.89000000000001 1.0000000180025095e-35 214.50000000000003 566.60000000000014 141.97000000000003 155.95000000000002 1.0000000180025095e-35 134.50000000000003 1.0000000180025095e-35 128.50000000000003 1.8598170456751502 2.0900445255488598 1.9618095270069362 141.43500000000003 109.50000000000001 485.35000000000008 141.48500000000004
decision_type=2 2 2 2 2 2 2 2 2 2 2 2 2 2 2 2 2 2 2 2 2 2 2 2 2 2 2 2 2 2 2 2 2 2 2 2 2 2
left_child=1 2 3 28 -5 6 16 8 18 -2 11 17 13 22 15 -15 32 -11 24 20 -10 -3 23 -13 -7 -4 -9 -21 30 33 31 35 36 -30 -29 -1 -6 -38
right_child=9 21 25 4 5 7 -8 26 19 10 -12 12 -14 14 -16 -17 -18 -19 -20 27 -22 -23 -24 -25 -26 -27 -28 34 29 -31 -32 -33 -34 -35 -36 -37 37 -39
leaf_value=-0.0057955457406784205 -0.028477931817324449 -0.0026933585404398637 -0.034215713418358384 0.011744514839626524 -0.0079976103279907375 -0.010763091681669237 0.018024995355536633 0.0035011602646382641 -0.012547330863083678 -0.0052935585131954326 0.014462711073003605 0.013802793181983259 -0.0065102293856274598 0.00014172866524625623 0.006582136902159085 -0.022035915941857286 -0.031225014615697478 -0.026380973609131116 0.013939941245969574 -0.022576199528095104 0.013398097393517076 0.0100166076045394 0.013720421536281717 -0.0020610381282498941 0.0077990038585482469 -0.016482380818273364 0.01243650921483549 -0.014609985713494504 -0.0078384595669936576 -0.024665439503645008 0.0016797554511654045 -0.016902069726990019 -0.019059458718865697 -0.014306868300220802 -0.0082741731855259532 -0.0091224751763647124 -0.012183631717548139 -0.0091566548133722604
leaf_weight=11.028445959091188 5.5142229795455924 26.010707259178162 11.028445959091188 40.04264497756958 12.682712852954863 17.645513534545902 12.929093122482298 44.852924644947052 19.851202726364136 28.92033976316452 39.890123963356018 41.943292140960693 33.026676118373871 34.833464026451111 82.93626070022583 15.991246640682219 15.991246640682219 14.336979746818541 26.010707259178162 17.094091236591339 14.031937718391417 67.402577102184296 80.179149210453033 47.058613836765289 11.978769540786741 12.131290555000303 41.391869843006134 18.748358130455017 37.496716260910034 12.682712852954863 19.147259414196014 15.439824342727659 11.028445959091185 11.028445959091185 13.785557448863981 16.54266893863678 12.131290555000307 13.234135150909422
leaf_count=20 10 21 20 29 23 32 6 29 36 35 20 15 25 37 37 29 29 26 21 31 8 35 32 33 13 22 14 34 68 23 26 28 20 20 25 30 22 24
internal_value=0 -0.0024925 -0.0042027 -0.00317449 -0.000796923 -0.0024522 -0.010858 0.000456639 -0.0040884 0.00342427 0.003844 0.00272704 0.0046596 0.00587733 0.00148364 -0.00683614 -0.0165971 -0.0122827 0.00478278 -0.00999837 -0.00180262 0.00647755 0.00935115 0.005415 -0.00325739 -0.0249268 0.00778954 -0.015594 -0.00979323 -0.0124906 -0.00713708 -0.0110621 -0.0118307 -0.00930855 -0.0119253 -0.0077917 -0.00973543 -0.0106043
internal_weight=0 583.37 489.956 466.797 343.431 303.388 77.9969 225.391 139.146 424.63 419.116 379.226 335.969 302.942 133.761 50.8247 65.0678 43.2573 55.635 83.5111 33.8831 93.4133 169.181 89.0019 29.6243 23.1597 86.2448 49.628 123.366 61.2079 62.1582 43.0109 49.0766 48.5252 32.5339 27.5711 38.0481 25.3654
internal_count=1008 709 653 611 396 367 124 243 200 299 289 269 208 183 103 66 118 61 66 134 44 56 80 48 45 42 43 90 215 111 104 78 89 88 59 50 69 46
is_linear=0
shrinkage=0.1


Tree=19
num_leaves=39
num_cat=0
split_feature=0 3 7 7 7 4 2 4 4 8 6 5 9 7 7 7 4 7 4 3 3 3 6 4 4 4 3 9 9 4 7 1 7 9 9 4 9 9
split_gain=0.708851 0.636775 0.486388 0.659655 0.412147 0.472858 0.37137 0.624342 1.13316 0.383119 1.37978 1.09766 0.564183 0.415737 0.546104 0.52114 0.405883 0.330423 0.299735 0.255099 0.536789 0.253554 0.458835 1.24964 0.492148 0.338526 0.246823 0.213477 0.153132 0.151333 0.125323 0.0879872 0.0406899 0.0217636 0.0111883 0.0100445 0.00942399 0.00513255
threshold=1.0000000180025095e-35 141.90500000000003 2.6665421462066772 2.4888104888219202 2.0317762093882807 125.25000000000001 1.0000000180025095e-35 191.50000000000003 168.50000000000003 1.0000000180025095e-35 1.0000000180025095e-35 1.0000000180025095e-35 665.50000000000011 2.1481911468351904 2.0011002487547898 1.8418448707110886 183.50000000000003 2.213786211447649 139.04500000000004 145.99000000000004 146.24500000000003 145.99000000000004 1.0000000180025095e-35 190.71517535888478 172.80000000000004 163.50000000000003 140.89500000000001 535.25000000000011 529.80000000000007 172.80000000000004 2.0882533821820473 1.0000000180025095e-35 2.1357022987016294 569.15000000000009 436.50000000000006 174.48994484798934 485.35000000000008 403.50000000000006
decision_type=2 2 2 2 2 2 2 2 2 2 2 2 2 2 2 2 2 2 2 2 2 2 2 2 2 2 2 2 2 2 2 2 2 2 2 2 2 2
left_child=1 6 3 19 5 -2 7 8 30 10 12 27 13 14 15 28 26 -15 -19 31 -21 22 23 25 -24 -7 -13 -11 -8 -20 36 32 33 34 37 -36 -1 -3
right_child=4 2 -4 -5 -6 21 9 -9 -10 11 -12 16 -14 17 -16 -17 -18 18 29 20 -22 -23 24 -25 -26 -27 -28 -29 -30 -31 -32 -33 -34 -35 35 -37 -38 -39
leaf_value=-0.0069479025456290703 -0.015176308821890735 -0.007141911665969238 -0.024617278746160959 0.012610456192782341 0.0082766987558550702 -0.029834275983242037 -0.014145762077411216 -0.02148180467728103 0.014030732974467601 -0.025041983042595441 0.019957059758878806 -0.01200490054822922 -0.016874723391806335 0.01562662819499782 -0.019836870242883727 0.01094871584803437 0.015386952969447483 -0.0096389565279937917 0.0095965207641521624 0.011878027929021919 -0.013754117717005344 0.010536426851894078 0.01172444422664716 0.0057212764528991435 -0.0020668957273242182 -0.010258816315963128 0.0069908284647158024 -0.0083713936174344677 0.00041408220859226621 0.0013208703521933817 -0.021184751441103447 -0.016276191641838016 -0.012505443487999441 -0.0105254947213607 -0.0064801417268138678 -0.0030581529012120761 -0.010626797050467188 -0.0093576807665255446
leaf_weight=15.439824342727663 16.54266893863678 38.599560856819153 13.785557448863981 18.84221738576889 121.96992033720016 15.439824342727659 18.196935832500461 19.299780428409576 28.615297734737396 19.851202726364136 42.89361572265625 14.336979746818544 17.492992520332336 24.755341649055481 17.094091236591339 26.010707259178162 21.599328875541687 16.390147924423218 40.441546261310577 18.994738399982452 14.336979746818541 32.32273280620575 56.679173171520233 50.613527894020081 47.610036134719849 20.64900529384613 13.08161413669586 12.530191838741301 11.978769540786741 48.712880730628967 11.028445959091185 14.336979746818541 17.645513534545898 18.196935832500458 33.08533787727356 11.579868257045744 12.682712852954863 14.336979746818541
leaf_count=28 30 70 25 8 38 28 33 35 17 36 8 26 23 10 31 21 13 21 21 17 26 15 33 22 34 20 15 14 13 36 20 26 32 33 60 21 23 26
internal_value=0 -0.00198437 -0.0064495 -0.00519696 0.00354382 0.00113709 0.00022263 -0.00561397 -0.00109483 0.00169402 0.00354356 -0.00430376 0.000358939 0.00183977 -0.00418609 0.000575486 0.00513455 0.00522871 0.00278989 -0.00704956 0.000852867 0.00234556 0.000959364 -0.00441622 0.00542843 -0.0186338 -0.0029419 -0.0185912 -0.00836598 0.00507481 -0.01215 -0.00883194 -0.00803214 -0.0073505 -0.00675855 -0.00559296 -0.00860701 -0.00774202
internal_weight=0 646.173 213.741 199.955 361.827 239.857 432.432 87.0661 67.7663 345.366 263.967 81.3993 221.073 203.58 73.2805 56.1864 49.0179 130.3 105.545 181.113 33.3317 223.314 190.992 86.7024 104.289 36.0888 27.4186 32.3814 30.1757 89.1544 39.151 147.781 133.444 115.799 97.6017 44.6652 28.1225 52.9365
internal_count=1008 788 344 319 220 182 444 123 88 321 217 104 209 186 98 67 54 88 78 311 43 152 137 70 67 48 41 50 46 57 71 268 242 210 177 81 51 96
is_linear=0
shrinkage=0.1


Tree=20
num_leaves=39
num_cat=0
split_feature=2 3 1 4 4 4 4 0 1 0 3 7 7 8 6 4 3 1 7 9 4 4 4 7 7 3 7 4 7 9 7 9 7 4 9 9 5 3
split_gain=0.58193 0.555663 0.827023 0.476204 0.958546 0.45631 0.396609 0.493848 0.433459 0.379024 0.50413 0.347715 0.661992 0.858468 1.06926 0.491077 0.444729 0.423367 0.596496 0.705422 0.333836 0.33016 0.305596 0.270814 0.214116 0.586038 0.458873 0.189164 0.177792 0.117801 0.10843 0.0882327 0.0659235 0.0390307 0.0245179 0.0211371 0.0190346 0.0100497
threshold=1.0000000180025095e-35 142.06000000000003 1.0000000180025095e-35 167.50000000000003 194.75000000000003 255.00000000000003 135.90000000000003 1.0000000180025095e-35 1.0000000180025095e-35 1.0000000180025095e-35 141.57500000000002 1.6514194216053466 1.7307732605264083 1.0000000180025095e-35 1.0000000180025095e-35 193.50000000000003 141.07000000000002 1.0000000180025095e-35 2.6950000000000007 539.50000000000011 199.05000000000004 156.50000000000003 184.90000000000003 2.2017888371150582 2.0317762093882807 136.96000000000001 1.6514194216053466 163.50000000000003 2.1481911468351904 479.95000000000005 1.4136233596217658 451.50000000000006 2.0317762093882807 172.15000000000003 423.50000000000006 477.50000000000006 1.0000000180025095e-35 141.30500000000004
decision_type=2 2 2 2 2 2 2 2 2 2 2 2 2 2 2 2 2 2 2 2 2 2 2 2 2 2 2 2 2 2 2 2 2 2 2 2 2 2
left_child=3 9 22 6 31 -6 8 32 34 11 24 30 -13 14 16 28 17 18 19 -14 -4 -19 23 27 25 -11 -27 29 -15 36 33 -5 -8 -2 -1 -24 -3 -36
right_child=1 2 20 4 5 -7 7 -9 -10 10 -12 12 13 15 -16 -17 -18 21 -20 -21 -22 -23 35 -25 -26 26 -28 -29 -30 -31 -32 -33 -34 -35 37 -37 -38 -39
leaf_value=-0.0053553106298123987 -0.0081421252798050819 -0.010435720803098158 -0.003275337480147883 0.0040214835874081822 -0.022062040131567096 -0.0015044700112620284 -0.0074469451523055527 -0.03248539589988398 0.0096279548834693127 0.010746821113579802 0.014009816572575901 0.023608224721802087 0.0058184782612472549 -0.0118242455334057 0.017961353338321339 0.00052144149558373592 -0.014329399351285155 -0.017180077028316483 0.015995780335897491 -0.014515500139705645 0.010198872559785847 -0.00026188456277737715 -0.015963468560631976 0.0065834258729266298 0.0067255134860209221 -0.018469225960512071 0.00049124930509425631 0.00012698593462879092 -0.026555711908532717 -0.01722003349548077 -8.4620707569293548e-05 0.012260518787936697 -0.016497642364582458 -0.01556186334160998 -0.012536972014179262 -0.022080594210096442 -0.0060532001398595396 -0.0088639332198330641
leaf_weight=14.8884020447731 19.851202726364139 17.645513534545898 30.973507940769196 20.64900529384613 19.299780428409576 24.508961379528046 29.776804089546204 12.682712852954863 17.891893804073334 30.668465912342072 58.028398036956787 13.480515420436857 71.016152918338776 21.505469620227814 42.89361572265625 27.11355185508728 18.196935832500458 16.390147924423218 36.581590175628662 22.45579320192337 45.251825928688049 38.939800381660461 11.028445959091188 14.184458732604979 87.042597055435181 20.250104010105133 34.528421998023987 19.698681712150574 13.234135150909422 20.954047322273254 13.633036434650419 35.079844295978546 11.028445959091185 11.028445959091185 12.131290555000307 11.579868257045744 22.608314216136932 19.299780428409576
leaf_count=27 36 32 30 20 35 27 54 23 15 12 18 7 59 39 8 23 33 21 14 32 21 27 20 17 27 28 19 27 24 38 16 20 20 20 22 21 41 35
internal_value=0 0.00125936 -0.00339109 -0.00458418 0.000507057 -0.010561 -0.0088898 -0.01525 -0.00359175 0.00277038 0.00594713 0.000771314 0.00191716 0.000968791 0.00361212 -0.00956442 0.000588795 0.00205314 0.00517018 0.000933423 0.00472374 -0.00527349 -0.00864648 -0.00616191 0.00323471 -0.000321289 -0.00651791 -0.00839641 -0.0174362 -0.0111395 -0.00751264 0.00920774 -0.00989308 -0.010792 -0.00869815 -0.0190966 -0.00797431 -0.0102816
internal_weight=0 790.763 193.925 217.237 99.5376 43.8087 117.699 53.488 64.2114 596.838 230.518 366.32 321.808 308.327 246.474 61.8532 203.58 185.383 130.054 93.4719 76.2253 55.3299 117.699 95.091 172.49 85.447 54.7785 80.9066 34.7396 61.2079 44.5127 55.7288 40.8053 30.8796 46.3195 22.6083 40.2538 31.4311
internal_count=1008 710 247 298 102 62 196 97 99 463 104 359 287 280 194 86 186 153 105 91 51 48 196 155 86 59 47 138 63 111 72 40 74 56 84 41 73 57
is_linear=0
shrinkage=0.1


Tree=21
num_leaves=39
num_cat=0
split_feature=0 3 7 4 7 3 3 3 9 7 7 4 4 9 7 4 5 3 4 3 9 3 3 7 4 9 7 9 7 4 4 4 3 3 9 4 9 9
split_gain=0.481063 0.42117 0.706331 0.562068 0.564497 0.456997 0.560294 0.79773 0.83637 0.688456 0.608879 0.608426 0.445042 0.29823 0.271291 0.356733 0.24958 0.205212 0.371052 0.49067 0.628656 0.341035 0.491297 0.45992 0.164098 0.160151 0.156756 0.150816 0.124745 0.0614187 0.056929 0.0538897 0.0381005 0.021405 0.0133966 0.013031 0.00457695 0.00485078
threshold=1.0000000180025095e-35 140.71000000000001 2.5733444781135724 199.05000000000004 2.0496984352448817 140.31000000000003 139.68500000000003 138.99500000000003 641.00000000000011 2.3697944271593152 2.1531539102151966 231.20000000000002 175.75000000000003 568.25000000000011 2.0317762093882807 125.25000000000001 1.0000000180025095e-35 144.18000000000004 126.30000000000001 142.06000000000003 504.15000000000003 141.57500000000002 136.96000000000001 1.6514194216053466 158.15000000000003 451.50000000000006 2.1357022987016294 446.95000000000005 2.0011002487547898 138.85000000000002 152.35000000000002 172.80000000000004 145.96000000000001 141.72500000000002 485.35000000000008 137.85000000000002 440.92512595559839 413.80000000000007
decision_type=2 2 2 2 2 2 2 2 2 2 2 2 2 2 2 2 2 2 2 2 2 2 2 2 2 2 2 2 2 2 2 2 2 2 2 2 2 2
left_child=1 5 3 13 27 6 7 8 9 10 11 24 30 26 15 -2 -15 18 -17 21 -21 22 -20 -24 29 -9 32 -5 -18 -1 -8 -11 33 34 -3 -30 37 -35
right_child=14 2 -4 4 -6 -7 12 25 -10 31 -12 -13 -14 16 -16 17 28 -19 19 20 -22 -23 23 -25 -26 -27 -28 -29 35 -31 -32 -33 -34 36 -36 -37 -38 -39
leaf_value=-0.0093932370355874813 -0.013202601440763857 -0.0069786768028447885 -0.023450089450765127 -0.012974877635237426 0.012210326987810757 0.012161108950403848 -0.0068644350088355914 0.003993398534053995 -0.020608753211517464 0.010034172208705488 -0.02422731398370943 0.0092791969908347354 -0.024221643611142471 0.010478314137040539 0.0067592822587244396 0.025272051735542825 0.0028889900112099363 0.0086283699739671555 0.0088457155360960708 -0.020116125109264919 0.0056038030825854065 0.0090494544148951653 -0.018114713076877082 0.00046833038294403139 -0.020088756379859019 0.013844662800223796 -0.017529430182615897 0.0011655434906962339 -0.010942361137514968 -0.00027750785446497883 0.0015867892938734428 0.0048172748057484531 -0.011339397731558017 -0.005631436903618176 -0.011258559531303298 -0.0062880904034607072 -0.0047032321414364987 -0.0079436777622927477
leaf_weight=19.29978042840958 16.54266893863678 19.851202726364139 18.196935832500458 14.888402044773104 40.992968559265137 31.923831522464752 21.904370903968811 25.459284961223602 21.352948606014252 33.976999700069427 14.8884020447731 28.615297734737396 15.439824342727659 17.340471506118774 121.96992033720016 5.9131242632865897 16.390147924423218 38.787279367446899 31.219888210296631 24.110060095787048 15.686204612255095 51.716372489929199 21.904370903968811 33.976999700069427 11.028445959091185 46.906092822551727 15.439824342727659 15.287303328514097 11.028445959091188 11.978769540786741 12.530191838741301 47.457515120506287 17.094091236591339 41.908094644546509 11.579868257045744 13.234135150909422 38.599560856819153 11.579868257045744
leaf_count=35 30 36 33 27 22 23 31 20 30 18 27 17 28 14 38 2 21 18 13 35 11 24 31 18 20 24 28 19 20 13 14 25 31 76 21 24 70 21
internal_value=0 -0.00163473 -0.00434826 -0.00312955 0.00456915 0.000767273 -0.000402902 0.00145315 -0.00197165 0.000407836 -0.00584238 -0.00198291 -0.0101145 -0.00568931 0.00291941 0.00096679 0.000433761 0.00201643 0.00062661 -0.000189293 -0.00997829 0.00261702 -0.00120224 -0.00681585 -0.00960029 0.0103788 -0.00796481 -0.0058112 -0.00385076 -0.00590218 -0.00378917 0.00699393 -0.00691457 -0.00630221 -0.00855548 -0.00840367 -0.00553313 -0.00613203
internal_weight=0 646.173 303.411 285.214 71.1687 342.762 310.838 260.964 188.598 167.245 85.8107 70.9223 49.8744 214.046 361.827 239.857 57.9932 223.314 184.527 178.614 39.7963 138.818 87.1013 55.8814 42.307 72.3654 156.053 30.1757 40.6527 31.2785 34.4346 81.4345 140.613 123.519 31.4311 24.2626 92.0875 53.488
internal_count=1008 788 463 430 68 325 302 229 185 155 112 85 73 362 220 182 79 152 134 132 46 86 62 49 68 44 283 46 65 48 45 43 255 224 57 44 167 97
is_linear=0
shrinkage=0.1


Tree=22
num_leaves=39
num_cat=0
split_feature=2 4 4 4 4 3 1 4 7 4 4 4 0 0 0 8 6 5 3 7 3 3 3 7 9 1 9 9 5 9 4 9 7 7 7 4 7 5
split_gain=0.427794 0.459736 0.605148 0.403484 0.505773 0.443052 0.800667 0.365049 0.508287 0.324323 0.538341 0.317835 0.408277 0.325246 0.289396 0.325316 0.662606 0.623125 0.309828 0.277662 0.269644 0.267587 0.297188 0.419395 0.671201 0.355954 0.226679 0.222803 0.230057 0.2091 0.203125 0.109288 0.0957544 0.0506626 0.0495944 0.0432345 0.0263635 0.00869542
threshold=1.0000000180025095e-35 282.92500000000007 167.50000000000003 126.30000000000001 127.25000000000001 142.06000000000003 1.0000000180025095e-35 118.50000000000001 2.1440457292773245 190.71517535888478 243.20000000000002 135.90000000000003 1.0000000180025095e-35 1.0000000180025095e-35 1.0000000180025095e-35 1.0000000180025095e-35 1.0000000180025095e-35 1.0000000180025095e-35 141.57500000000002 1.6131047182089042 139.61000000000004 141.22000000000003 140.31000000000003 2.355622414787748 447.40000000000003 1.0000000180025095e-35 535.25000000000011 532.60000000000014 1.0000000180025095e-35 502.65000000000003 199.05000000000004 455.50000000000006 2.0968237923435176 2.0317762093882807 1.9755001483230639 180.50000000000003 1.8598170456751502 1.0000000180025095e-35
decision_type=2 2 2 2 2 2 2 2 2 2 2 2 2 2 2 2 2 2 2 2 2 2 2 2 2 2 2 2 2 2 2 2 2 2 2 2 2 2
left_child=1 2 11 7 -5 14 27 8 36 -4 -11 13 33 34 15 16 21 26 19 -16 -19 22 23 24 -6 -25 -17 29 -29 35 -8 -21 -9 -13 -1 37 -2 -7
right_child=3 -3 9 4 5 6 30 32 -10 10 -12 12 -14 -15 18 17 -18 20 -20 31 -22 -23 -24 25 -26 -27 -28 28 -30 -31 -32 -33 -34 -35 -36 -37 -38 -39
leaf_value=-0.0056635291384018148 -0.0064323527926088185 -0.02382269305357251 0.0089209652314452895 0.021499486037538498 -0.001070380341426548 -0.0086801047381543876 -0.0020102555049907041 -0.0099209335473656249 0.0088411418696849268 -0.012445472697283728 0.01125023291013378 -0.0062427820649411702 -0.028929109196058428 0.0067523582031582098 -0.0067276587220528846 -0.02316303472730644 0.01608694333148588 0.0095752850376689663 0.012036860860921964 0.0084737146552160587 -0.0072442938304224051 -0.011334491030361714 0.0091108154976239624 0.0095809650492244547 -0.026907542046067032 -0.0032032624704173944 -0.0055741542622877761 -0.027262562949050245 -0.008197519273327512 0.0060199865937112587 0.0088668187314139956 0.0027593281194283979 -0.02179908506205756 -0.01417702392634098 -0.013009506566626063 -0.013589812867371744 -0.011909433387094067 -0.0056562974958201777
leaf_weight=27.571114897727966 18.748358130455017 11.028445959091185 48.161458432674408 12.929093122482298 41.84943288564682 18.748358130455017 27.66497415304184 17.645513534545902 29.166720032691956 24.661482393741608 15.686204612255095 29.776804089546204 12.682712852954863 22.854694485664368 22.854694485664368 17.645513534545902 32.170211791992188 24.907862663269043 57.476975739002228 58.028398036956787 15.439824342727659 17.094091236591339 42.248334169387817 48.560359716415405 13.234135150909422 39.491222679615021 12.530191838741301 12.131290555000305 13.234135150909424 11.427347242832182 45.251825928688049 79.076304614543915 11.028445959091185 11.028445959091185 13.785557448863981 14.336979746818541 16.54266893863678 19.299780428409576
leaf_count=50 34 20 35 6 41 34 24 32 18 36 11 54 23 24 24 32 6 19 17 18 28 31 33 27 24 28 14 22 24 12 21 30 20 20 25 26 30 35
internal_value=0 -0.00393046 -0.00286658 0.00107977 0.00190509 0.0015351 -0.00303242 -0.00510259 -0.000926851 0.0033804 -0.00323316 -0.00756428 -0.0132579 -0.00282146 0.00295178 0.000965446 0.00275539 -0.00499011 0.0057396 0.00347685 0.00313895 0.000637233 0.00174114 -0.000434125 -0.0072779 0.00384723 -0.0158594 -0.00938758 -0.0173156 -0.0062362 0.00474001 0.00517789 -0.0144895 -0.00838717 -0.00811219 -0.00890978 -0.00899973 -0.00714629
internal_weight=0 217.237 206.208 790.763 697.631 684.702 162.095 93.1317 64.4577 88.5091 40.3477 117.699 53.488 64.2114 522.608 305.171 234.648 70.5234 217.436 159.959 40.3477 202.478 185.383 143.135 55.0836 88.0516 30.1757 89.1779 25.3654 63.8125 72.9168 137.105 28.674 40.8053 41.3567 52.3851 35.291 38.0481
internal_count=1008 298 278 710 576 570 198 134 82 82 47 196 97 99 372 283 190 93 89 72 47 184 153 120 65 55 46 153 46 107 45 48 52 74 75 95 64 69
is_linear=0
shrinkage=0.1


Tree=23
num_leaves=39
num_cat=0
split_feature=2 4 4 7 4 4 9 9 4 9 3 4 9 3 7 3 4 0 4 4 7 4 7 3 4 0 1 9 3 9 0 0 7 7 4 4 7 3
split_gain=0.346513 0.372386 0.49017 0.335592 0.369917 0.373773 0.538838 0.531329 0.376043 0.385703 0.412581 0.347439 0.392166 0.322402 0.47321 0.313451 0.601947 0.312523 0.86107 0.487314 0.309869 0.287321 0.277098 0.275065 0.265294 0.353338 0.315383 0.245841 0.187142 0.150538 0.139546 0.0545387 0.0377765 0.0315708 0.0315064 0.0163815 0.0162267 0.00247605
threshold=1.0000000180025095e-35 282.92500000000007 167.50000000000003 3.9700000000000002 190.71517535888478 173.50000000000003 462.50000000000006 423.50000000000006 126.30000000000001 434.00000000000006 132.99500000000003 206.75000000000003 472.34217272418471 136.96000000000001 1.9848532038927622 145.23000000000005 175.15000000000003 1.0000000180025095e-35 132.93500000000003 154.05000000000004 2.0409670751574414 118.50000000000001 2.0317762093882807 139.95500000000001 126.30000000000001 1.0000000180025095e-35 1.0000000180025095e-35 536.90000000000009 141.89500000000001 383.50000000000006 1.0000000180025095e-35 1.0000000180025095e-35 1.9411094043107628 1.9161554124540334 211.50000000000003 154.05000000000004 1.9223069170561162 143.00500000000002
decision_type=2 2 2 2 2 2 2 2 2 2 2 2 2 2 2 2 2 2 2 2 2 2 2 2 2 2 2 2 2 2 2 2 2 2 2 2 2 2
left_child=1 2 24 4 5 7 -7 22 21 -10 -11 29 13 -13 -15 16 -4 18 -12 -20 34 27 30 -14 25 32 31 -9 -25 -6 33 35 -1 37 -18 36 -26 -2
right_child=3 -3 15 -5 11 6 -8 8 9 10 17 12 23 14 -16 -17 20 -19 19 -21 -22 -23 -24 28 26 -27 -28 -29 -30 -31 -32 -33 -34 -35 -36 -37 -38 -39
leaf_value=-0.0051334571256316285 -0.0056710901002890229 -0.021440423528652258 0.011080987595997668 -0.0091380514881385152 0.014927759463136105 -2.2426024062105175e-05 -0.019116224430433225 0.0074783143378069393 0.018658170371900522 0.018119090562981374 0.016463238889004389 0.0037779725478353679 0.0088410604260652122 -0.0023047440032507227 -0.024421702062589132 0.014485316069943336 -0.01931791231918412 0.0071897791051484354 -0.013770558939099271 0.00077035929960834939 0.0020714726571401157 -0.014468486434784995 0.0023095566206799852 -0.0067125849844686314 -0.0057501354204112579 0.0097509946089010813 -0.025437666904653922 -0.0085009620180663947 0.0045858902698127724 0.0063096743773001828 -0.016668281407397116 -0.013987950271020462 -0.012470163022184323 -0.011014855000999316 -0.011932823384997005 -0.0035724848918733051 -0.010584231345586247 -0.0040452278363183316
